{"labels":[{"id":"aws","fullname":"Amazon AWS","domains":["amazon.com","www.amazon.com"]},{"id":"box","fullname":"Dropbox","domains":["dropbox.com","www.dropbox.com"]},{"id":"git","fullname":"GitHub.com","domains":["github.com"]},{"id":"goog","fullname":"Google","domains":["accounts.google.com"]},{"id":"live","fullname":"Microsoft Live","domains":["login.live.com"]},{"id":"negative"},{"id":"o365","fullname":"Office 365","domains":["login.microsoftonline.com"]},{"id":"sf","fullname":"Salesforce","domains":["login.salesforce.com"]},{"id":"twt","fullname":"Twitter","domains":["twitter.com"]}],"network":{"layers":[{"out_depth":3,"out_sx":96,"out_sy":96,"layer_type":"input"},{"sx":5,"sy":5,"stride":1,"in_depth":3,"out_depth":18,"out_sx":96,"out_sy":96,"layer_type":"conv","l1_decay_mul":0,"l2_decay_mul":1,"pad":2,"filters":[{"sx":5,"sy":5,"depth":3,"w":{"0":-0.203372881392867,"1":-0.5786226554712922,"2":-0.4116410699343828,"3":-0.03145240140537882,"4":-0.24539469107267498,"5":0.23117804960094768,"6":-0.0664089748315553,"7":-0.09714512651457478,"8":-0.1316322795273225,"9":0.09862664815960351,"10":-0.23182746452543124,"11":0.03703963056236657,"12":0.11235667959105908,"13":-0.22977381360415536,"14":-0.06357783464550462,"15":0.013685802028921125,"16":-0.45189657447388665,"17":-0.0983155777468114,"18":-0.07470683586215313,"19":-0.07083923206053294,"20":-0.11109663994937859,"21":0.014117067665393302,"22":-0.04214578980906479,"23":-0.04352593563944106,"24":0.07935380800455119,"25":-0.021857534403117,"26":-0.11979790815909247,"27":-0.044619339491691015,"28":-0.07732127534585995,"29":-0.02339108159790453,"30":0.11318631267193079,"31":-0.3663735324791314,"32":0.02291415964953436,"33":0.10042038643363442,"34":-0.43440617741552817,"35":-0.1028498463678468,"36":0.16909152598340874,"37":-0.17110400010581747,"38":-0.014355824142371694,"39":0.06567790363296466,"40":-0.26040948743193304,"41":-0.24692965318216153,"42":0.012654045085560959,"43":-0.3049863103848002,"44":-0.03441377401302937,"45":0.002569559981855867,"46":-0.36246063557642744,"47":0.061797556453232594,"48":0.13891129000895347,"49":-0.14248170787962833,"50":0.124825471985001,"51":-0.06994506754161119,"52":0.14858171608795512,"53":-0.07227433048179875,"54":-0.11177671354108427,"55":-0.30214283083180044,"56":-0.006532040530147885,"57":-0.08505006174592383,"58":-0.48721034599115975,"59":-0.15582666805120715,"60":-0.2805868794458226,"61":-0.3361959681106782,"62":-0.1308148262479519,"63":0.04636851988275023,"64":-0.18135674444618935,"65":-0.03923364251567484,"66":-0.1666097552559717,"67":0.026819762535951804,"68":0.07600760297066927,"69":-0.11306154333089379,"70":-0.25648120436174604,"71":-0.07063658229695363,"72":0.0041571388067543295,"73":-0.22593193970975056,"74":0.057309290287780465}},{"sx":5,"sy":5,"depth":3,"w":{"0":0.19373288643391998,"1":0.13740466328800233,"2":0.015753739539647496,"3":-0.24142653347033918,"4":-0.1047535360206819,"5":-0.23884677605324733,"6":0.016620546152521648,"7":0.03426262644190803,"8":-0.13501683817730498,"9":0.14583117185274114,"10":-0.10219205202051983,"11":-0.09855660019845967,"12":0.01051520320545341,"13":0.02291232360062389,"14":-0.13825732448734632,"15":0.030702187021418918,"16":-0.1170097739805669,"17":-0.2666064816399338,"18":0.2740350590441884,"19":0.050053113489433566,"20":0.19908813047870852,"21":0.08763043635180287,"22":0.004852931715578394,"23":-0.25349537826867863,"24":-0.018941153777497406,"25":0.05263193352260813,"26":0.030619299207515126,"27":0.0900576026385969,"28":0.16640796094474902,"29":0.10556861623883666,"30":-0.15873728493907696,"31":-0.26607726898699163,"32":-0.3274648854888466,"33":-0.25620199666634497,"34":-0.17354104077249138,"35":-0.018374063531921832,"36":-0.37501812205560775,"37":0.03483218219892796,"38":-0.2925409364040953,"39":-0.09470493227420301,"40":-0.0556832605577897,"41":-0.08493106206711927,"42":-0.19990640030125592,"43":-0.19140734729450853,"44":-0.28896988378512034,"45":0.17384096370375823,"46":0.13023813045471147,"47":0.3422770565786434,"48":0.2389726593095667,"49":0.09132048817857397,"50":0.15134267331367782,"51":0.17475336777444792,"52":0.1315515685895703,"53":0.15580296742244745,"54":-0.1913203573669915,"55":0.23769080647256455,"56":0.11701740604484745,"57":0.28468112040085997,"58":0.21691538215721784,"59":0.10892460997376502,"60":-0.0408360459718861,"61":-0.18634508383346837,"62":-0.03816522467904939,"63":-0.12500568502133425,"64":-0.06809551340910845,"65":0.026438271982741613,"66":-0.006937016163979721,"67":-0.20195228809277746,"68":0.0892278985978708,"69":-0.181861050565001,"70":0.08213126747280525,"71":-0.12227611757791806,"72":-0.1492475749432414,"73":-0.15871869432266603,"74":-0.019796045232819595}},{"sx":5,"sy":5,"depth":3,"w":{"0":-0.1724180718564658,"1":-0.007417533881233513,"2":0.09147520316901261,"3":-0.016685598491257142,"4":-0.08405714366361008,"5":0.02470761344037772,"6":-0.046999085829781316,"7":0.011285224295996448,"8":-0.19101762315163626,"9":-0.03876061467667646,"10":-0.12877288200593606,"11":-0.19853985666921303,"12":-0.3057314483591421,"13":0.051937637230343385,"14":-0.07767425190217846,"15":-0.08286914956281058,"16":-0.02353206635840768,"17":-0.008645135240929028,"18":-0.1215610636491231,"19":0.052081349064695664,"20":-0.00037041010827447565,"21":-0.2689257166896479,"22":0.16042484849466784,"23":-0.2131145842570071,"24":0.04840644836171675,"25":0.1352193853047077,"26":-0.1276576321791275,"27":0.031933791658876685,"28":0.08749412310041169,"29":-0.1551113715771492,"30":-0.28967278757972603,"31":0.16913890174046922,"32":-0.024312221859486106,"33":0.016912397998585398,"34":0.2957340681493694,"35":-0.16142951743750752,"36":-0.07867303640669282,"37":0.09965521576358014,"38":0.04326038870397189,"39":-0.07809697848947214,"40":0.2242723219218098,"41":-0.04270271049076258,"42":-0.2866891153088047,"43":0.15354666634178907,"44":0.1375456175244046,"45":-0.01687247796560342,"46":0.11069056425375706,"47":-0.26305012584402754,"48":-0.07314820217613582,"49":0.014647188623280875,"50":0.00928524796998085,"51":0.013974621351594028,"52":-0.02809110109227206,"53":-0.09364276143155657,"54":-0.3356840261328158,"55":0.18493515022529447,"56":-0.08278231517809816,"57":-0.17176042546486772,"58":0.09170096443572427,"59":-0.02672083547401058,"60":-0.12489053328249816,"61":-0.0983710401764162,"62":0.15672682039432828,"63":-0.0710174615036965,"64":0.05375235675925708,"65":-0.14012618562998094,"66":0.012247757801417878,"67":-0.06653126874536051,"68":0.034538306276769466,"69":-0.09972446986708783,"70":0.04483937383363444,"71":-0.18340256757995713,"72":-0.018051121034449946,"73":-0.045044730914912866,"74":-0.030333043440466684}},{"sx":5,"sy":5,"depth":3,"w":{"0":-0.04413622684021519,"1":-0.159211869610343,"2":-0.034707103546867756,"3":0.10285566457448998,"4":0.17776627542871398,"5":-0.08997335840567808,"6":-0.07678160124659911,"7":-0.0892663472908536,"8":0.027640354537302025,"9":0.034284879510741224,"10":-0.091754929856266,"11":0.0067529930744859405,"12":-0.04299437563884551,"13":0.007479088773263977,"14":-0.011670606617266495,"15":-0.19287137089162304,"16":-0.04293026911210493,"17":-0.03140814245937184,"18":0.08599771145169186,"19":0.11947217509035063,"20":0.02275938591039071,"21":-0.22927291047955634,"22":-0.2696589831245532,"23":-0.13259589154926488,"24":-0.15933827510652,"25":0.019263382302268296,"26":0.07999280465408513,"27":-0.20900486439775767,"28":-0.3797390835540105,"29":0.01079043937200115,"30":-0.10847288101878165,"31":-0.26156605824004914,"32":0.06218525312157318,"33":-0.02459049715137355,"34":0.11631488760915548,"35":-0.04317854346780203,"36":-0.12590790190141044,"37":-0.013054578493549775,"38":-0.3702030925620085,"39":-0.1792129068072328,"40":0.12502768441698364,"41":-0.15831504170715366,"42":-0.1563222045946261,"43":-0.24668401088408748,"44":-0.15682038935252998,"45":-0.006367024392469205,"46":-0.21585554294809153,"47":-0.1195394159887073,"48":0.08046298703436816,"49":0.12023876510581051,"50":-0.15635565182093242,"51":-0.012952125882250238,"52":-0.3683700446669318,"53":-0.2387020551344576,"54":-0.019945647437098698,"55":0.06538929436891695,"56":-0.05761069606446342,"57":-0.1621793551595247,"58":-0.24171509849025383,"59":-0.2842928149683747,"60":0.1273600673839396,"61":0.027081883861711564,"62":-0.21960777491550307,"63":0.04210882062010406,"64":0.15291757877409587,"65":-0.025035256071866963,"66":-0.16304082888177257,"67":-0.1781209544387833,"68":-0.09761764866765246,"69":0.11585451929549458,"70":0.015944587601347867,"71":-0.18573326629176765,"72":-0.19545966827923855,"73":-0.21181715187393937,"74":-0.20342081247373509}},{"sx":5,"sy":5,"depth":3,"w":{"0":0.1674136135043697,"1":0.010790601710525913,"2":-0.1343279073428004,"3":0.07091313034428084,"4":-0.04144462376349994,"5":-0.19515091599507475,"6":0.15834722682197322,"7":-0.05196350558343294,"8":-0.2673141694487931,"9":-0.19821315253786642,"10":0.035220984835014575,"11":-0.4335508448744757,"12":0.409189717606467,"13":-0.03490577494952802,"14":-0.03649155808341991,"15":0.11453073478660787,"16":-0.19979186362172588,"17":-0.09086300664553038,"18":-0.00790874024116776,"19":0.03871707077395627,"20":0.00043845635297783196,"21":0.09459540712313522,"22":-0.09181661702133631,"23":-0.1482907110117724,"24":0.14887798849137718,"25":0.08384494565148053,"26":0.0007810021609987255,"27":0.04356032769405591,"28":-0.181475394458035,"29":-0.3975933507499086,"30":0.1712937601106656,"31":-0.05940924520967365,"32":-0.3060076887383038,"33":0.04483640283694599,"34":-0.10630457052959216,"35":-0.10994930785776981,"36":-0.031151583747404503,"37":-0.06719292732039027,"38":-0.33692013120311737,"39":0.30787064788081114,"40":0.2830256787954759,"41":-0.15021176727844124,"42":-0.1034829777162988,"43":-0.21615204946222089,"44":-0.40672419334514937,"45":-0.11301884396314775,"46":-0.04826502613033129,"47":-0.09618405535635911,"48":0.06616270658997482,"49":0.24114409780765594,"50":0.06897450716137321,"51":-0.08925580588155874,"52":-0.005312639065199936,"53":-0.17368544101768396,"54":0.10416448220587925,"55":-0.1455809332695474,"56":-0.01064782198732411,"57":-0.15017075535959903,"58":-0.057792109846367776,"59":-0.3696036672739724,"60":0.06470554948102827,"61":0.1320868924173878,"62":0.10007869615709981,"63":-0.17385058615011983,"64":0.12775831147296146,"65":-0.1701718898105532,"66":0.2554799748993396,"67":-0.1223304358804982,"68":0.16823960478149316,"69":-0.014062052345638613,"70":-0.014480468134153794,"71":0.020009496342987956,"72":0.10777587861312718,"73":0.15031996239273404,"74":0.13319344386630524}},{"sx":5,"sy":5,"depth":3,"w":{"0":0.14216629287416108,"1":0.09102254714059174,"2":-0.17881143364351662,"3":-0.14864986686562595,"4":0.05333762370467198,"5":-0.1387850655535327,"6":0.13942890025699672,"7":-0.006528608503959597,"8":-0.47361060640599517,"9":0.08325111343801088,"10":-0.11932863608817158,"11":-0.2668910214191181,"12":0.21136843953099296,"13":-0.05971109729856015,"14":-0.12001129935762918,"15":0.027677315101311002,"16":0.002819197931826942,"17":-0.1438495688366107,"18":0.19208838011569793,"19":-0.020538770702255203,"20":-0.07230699954093801,"21":0.1362873694484098,"22":-0.1276933582815476,"23":-0.18933489326641606,"24":-0.016288790126634412,"25":0.03807694902473707,"26":-0.05824047422237207,"27":0.09787676003140952,"28":0.15082909758324003,"29":-0.16984853132650093,"30":0.1185617230993579,"31":0.06455833675256853,"32":-0.07926865085969642,"33":0.07226566896111092,"34":0.06039052024605253,"35":0.08523215099206079,"36":0.1404558742010687,"37":-0.05230757055785342,"38":-0.08192327226268437,"39":0.02155141780291441,"40":0.2105509776119234,"41":0.1637909848358533,"42":0.2271436066632789,"43":0.059430215862420935,"44":-0.09724428941655919,"45":-0.1323142892654577,"46":0.3053858236082958,"47":0.0030539054903070658,"48":-0.19725062336211682,"49":-0.01266773324900552,"50":0.05251271312103953,"51":-0.35030652655297834,"52":-0.2256801202267109,"53":-0.06513754957807348,"54":-0.2772233818638812,"55":-0.184817909973816,"56":-0.10927073913864478,"57":-0.1675709815317033,"58":-0.028375207933661408,"59":0.049336493061793434,"60":-0.13221773928598374,"61":-0.12530421676876835,"62":0.0696264247373683,"63":-0.3715174279004695,"64":-0.0171051464231314,"65":0.15176345363730467,"66":-0.30666735186121796,"67":-0.25362385678285815,"68":0.05937160543922705,"69":-0.32404365642996963,"70":-0.2966021845618275,"71":0.02779977794037907,"72":-0.15943583401209813,"73":0.0039068791886607045,"74":0.014977818646843657}},{"sx":5,"sy":5,"depth":3,"w":{"0":-0.042278539871528194,"1":0.037831347382990196,"2":-0.007026262276419305,"3":-0.25171639560796977,"4":-0.19277205314145363,"5":-0.2505483622918146,"6":0.2113771474689958,"7":0.3919763144577518,"8":-0.005552789071862631,"9":-0.34433913044255127,"10":-0.17916528131470436,"11":-0.13195094749300704,"12":0.022352380904900798,"13":-0.12586712630381613,"14":-0.1632983902548435,"15":-0.03535221270421977,"16":0.010074198805015207,"17":-0.08782448757649085,"18":-0.14876773729371698,"19":-0.19816193284248784,"20":-0.319402549644308,"21":0.06076124621671992,"22":-0.06678003402365061,"23":-0.07108095359288402,"24":-0.09363423398747589,"25":-0.2045190644813167,"26":-0.1647609440550321,"27":0.11882466361177633,"28":0.07727445318317794,"29":0.05588294557928333,"30":0.06400105444687532,"31":-0.02548628995188834,"32":0.019701586097072517,"33":-0.15531380285520166,"34":0.029205291711750646,"35":-0.14413333420813104,"36":0.13430743360874417,"37":0.18578692176763012,"38":0.2918874516188393,"39":0.08008160216214358,"40":-0.1832958828140185,"41":-0.13010427280414388,"42":-0.0425827148467779,"43":-0.008166813330427446,"44":-0.005657822750603573,"45":-0.058970920485993686,"46":-0.015034897328207605,"47":-0.0430183634166619,"48":-0.13452157898281983,"49":0.017846944093254696,"50":-0.2620554548900544,"51":0.1246715967961773,"52":0.13147926549279962,"53":-0.03302950527254066,"54":0.02401205688799455,"55":0.0654476873123686,"56":0.10695529408081397,"57":-0.1252960370616835,"58":-0.034120521153214615,"59":-0.0071651154646969195,"60":-0.06142971153691351,"61":-0.0030989326534847242,"62":-0.28368095170704904,"63":-0.00156136102012059,"64":-0.2577447875578605,"65":-0.19667665032404388,"66":-0.08779559722104792,"67":0.2685070784365801,"68":-0.031895501073596524,"69":0.049998140396407265,"70":-0.05267383027129864,"71":-0.09729564615794757,"72":-0.02066170568343042,"73":-0.2645012169662149,"74":-0.2564222589733801}},{"sx":5,"sy":5,"depth":3,"w":{"0":-0.23787693470540247,"1":-0.3491087972807201,"2":-0.3372713539287911,"3":-0.03444409708542458,"4":-0.08227734820253614,"5":0.02297602279370366,"6":-0.06873524524433193,"7":-0.4322505560096456,"8":-0.24089384225458238,"9":-0.05829690620068393,"10":-0.22012708423035954,"11":-0.188879578935106,"12":-0.07718949711600183,"13":-0.09968130368148286,"14":-0.03020724957116725,"15":-0.20534797270281852,"16":-0.14582770312672544,"17":-0.025205559858821905,"18":0.021924176040073493,"19":0.11313335490345543,"20":0.019201149059091708,"21":0.02535853519636359,"22":-0.03362758121306793,"23":0.07924298183501748,"24":-0.021028542587136444,"25":0.011266278850603453,"26":-0.001256600876002882,"27":0.04622979261622553,"28":-0.1262806453357596,"29":-0.029472568884396425,"30":-0.15825354944120212,"31":-0.3180025819453949,"32":0.19761504385170708,"33":0.07816120377346807,"34":0.1506268137106543,"35":0.07895761871011253,"36":0.1355749840245917,"37":-0.11476950730332039,"38":0.025545387660236667,"39":0.03454252509739986,"40":0.09547664533016391,"41":0.07750183011770297,"42":-0.24489515957080485,"43":-0.35461772970977956,"44":-0.1385991570378544,"45":-0.2502150583638933,"46":-0.48873649596195823,"47":-0.25702690474216006,"48":0.21417274714640072,"49":0.07937059710250652,"50":-0.07191692789358872,"51":-0.30227779227955903,"52":-0.07024296338164043,"53":-0.26053031778816294,"54":0.050062990403070995,"55":0.09270126507484798,"56":0.031865438818740606,"57":-0.4217250364694163,"58":-0.6628168725227827,"59":-0.39715738300003406,"60":0.08534546894950402,"61":0.22412946037366166,"62":0.002452192105319461,"63":0.053814741342386375,"64":0.005311537372606216,"65":-0.19050120735966072,"66":-0.015565467562970565,"67":0.19105565641806882,"68":0.08836696476058359,"69":0.1850671532646179,"70":-0.10541633308858474,"71":-0.12846053895589377,"72":0.012501511213145465,"73":0.1769970956828712,"74":-0.04158537456758168}},{"sx":5,"sy":5,"depth":3,"w":{"0":-0.09804874808895625,"1":-0.2512135014679103,"2":-0.13730344770793276,"3":-0.000034225986303658434,"4":-0.19324933215530454,"5":-0.13276825223920347,"6":0.14281157950365414,"7":-0.25925381640491524,"8":-0.217915676280648,"9":0.024849398587340945,"10":0.045887631106770306,"11":0.24207152572853932,"12":0.01521052657033425,"13":-0.27212688578447564,"14":-0.11273023536162134,"15":-0.026545987446072027,"16":-0.21693029281167672,"17":-0.15807223211556104,"18":-0.11275153891747826,"19":-0.10159919512342942,"20":-0.20253455313315127,"21":0.06465450143234888,"22":-0.31579936440352335,"23":-0.25791917224522154,"24":-0.046820370443072565,"25":-0.0764853992012367,"26":0.08297231660899261,"27":-0.11035899580286225,"28":-0.14464491532175672,"29":-0.07672837263093721,"30":-0.22231621967349743,"31":-0.33208407307829696,"32":-0.26840747613018495,"33":-0.13777741190877493,"34":-0.2759073030111562,"35":-0.04261748946927426,"36":-0.173882555175646,"37":-0.2435554372310053,"38":-0.5813694024583714,"39":-0.03931171528831416,"40":-0.004299225456379877,"41":-0.10760361434832576,"42":0.038981411098899604,"43":-0.5156699053321476,"44":-0.09713625674173311,"45":-0.08751153977496892,"46":-0.3625643954853769,"47":0.15355746612623125,"48":-0.06125915642627551,"49":-0.03802907163289584,"50":0.11897678208246272,"51":-0.15942347333485357,"52":-0.21778133604471983,"53":0.04383008019040007,"54":0.1485296143628503,"55":-0.016154998275185156,"56":-0.03315428420651063,"57":-0.12581618364709113,"58":0.18282529633345826,"59":-0.02263553285285769,"60":0.15453766795312573,"61":0.052430440551430355,"62":-0.08069585240515338,"63":0.21359971066450545,"64":0.03938615279279081,"65":-0.03337836882718801,"66":0.22943407297798815,"67":0.031743633885259234,"68":0.012656975366211841,"69":0.07516330248701368,"70":-0.05015990209963966,"71":0.12581306318893243,"72":0.021858965502990123,"73":0.11247042515383994,"74":0.07556288539793629}},{"sx":5,"sy":5,"depth":3,"w":{"0":0.11464823290447347,"1":0.07614617640529808,"2":-0.02034435161710827,"3":-0.0014760482680504737,"4":-0.06762639814402133,"5":-0.1304899508625515,"6":-0.16741556646404188,"7":-0.034515506572662356,"8":-0.2209732733181764,"9":-0.13816950783261822,"10":-0.08309249176404296,"11":-0.3419176835652093,"12":-0.23987553368532438,"13":-0.29239427488622255,"14":-0.1041434033907892,"15":0.2131896408526221,"16":-0.07596813275199975,"17":-0.037647032847692,"18":-0.1701930361821603,"19":0.038066223225165494,"20":-0.07617654396802846,"21":-0.11686161147002577,"22":0.024635180244494126,"23":-0.037532614866702396,"24":-0.02602645467564835,"25":-0.08774461894620986,"26":-0.10008646860613779,"27":0.12690721800253685,"28":0.14101960717151862,"29":-0.009409571674044437,"30":-0.0769970575944152,"31":-0.03222574934464591,"32":0.04250243132332355,"33":-0.001479229699917685,"34":-0.05607045973936939,"35":-0.10811185001295398,"36":-0.10515720935150304,"37":-0.15965670538294616,"38":0.08057866158536293,"39":0.03769371598669082,"40":-0.04928081711743658,"41":-0.01905785090836488,"42":-0.05404097181240111,"43":0.19807195615521275,"44":-0.2971660821046696,"45":0.05296671651347384,"46":-0.08833375510078656,"47":-0.05891224271463918,"48":0.15393122292655548,"49":-0.025081120144070285,"50":0.048998778829690136,"51":-0.12021882388382871,"52":0.0190107275180989,"53":-0.1390563450565209,"54":0.18321404658769871,"55":0.02699173997139169,"56":-0.0480890096171905,"57":0.17997496655705378,"58":-0.11757576333262633,"59":0.020049019057799933,"60":0.13830496773818596,"61":-0.01770158231359849,"62":0.04412534826059909,"63":-0.07388838362789561,"64":-0.31380454044994116,"65":0.17504653935142564,"66":-0.24434408035339988,"67":-0.14435447903188883,"68":-0.08575262391826133,"69":0.08571986131540257,"70":-0.0553788735665917,"71":0.07211411530303004,"72":-0.03960952210891498,"73":-0.33075534183188,"74":-0.17110935033893596}},{"sx":5,"sy":5,"depth":3,"w":{"0":-0.10253872977260049,"1":-0.33593297332321653,"2":0.1030630004265441,"3":-0.02528908075283402,"4":-0.14790873097482735,"5":-0.016897728049764645,"6":-0.22349075916758718,"7":-0.16563685380812812,"8":0.1402393901880671,"9":-0.29763516457570033,"10":-0.215353159338043,"11":-0.01735828156203408,"12":-0.09731635812478133,"13":-0.2809267536262298,"14":-0.05164355423016543,"15":0.02058957789014996,"16":-0.010121992243266887,"17":0.18740387974184194,"18":0.054203768809056134,"19":-0.018300059229146008,"20":0.12213700858643817,"21":0.12467889883154408,"22":-0.04889588065277552,"23":0.29590069059961016,"24":-0.05467018528012707,"25":0.16573021031525592,"26":0.09071490871552228,"27":0.1640362584374802,"28":-0.10598502686979445,"29":-0.05532970761512103,"30":-0.015453918208810986,"31":-0.2507281192443248,"32":0.016030974133970054,"33":-0.043972672404870926,"34":0.180119275921373,"35":-0.004074077162261392,"36":0.12151497637199381,"37":-0.06690846067327046,"38":0.20783452806033795,"39":-0.07555390125974361,"40":-0.10613929614735727,"41":0.38159711440423405,"42":0.05916080029721656,"43":-0.033469210159134316,"44":0.06604756121459096,"45":0.12843372503827163,"46":-0.04814485623914067,"47":-0.1446873558053299,"48":0.01434279640231621,"49":0.0032307722925982215,"50":-0.014278939666909145,"51":0.1233771249535647,"52":-0.44017770489910835,"53":-0.1672322054472941,"54":-0.2875205820100483,"55":-0.48421976363489966,"56":-0.28393166428841815,"57":0.08959261066576325,"58":-0.07928463181743448,"59":-0.28399494327298425,"60":0.22474247391296626,"61":-0.022215646785411436,"62":-0.09248113689727264,"63":-0.06195594066550143,"64":-0.11811431260799275,"65":-0.010605202657723781,"66":-0.11731024929515572,"67":-0.18767465670319064,"68":-0.0818966851082173,"69":0.13950846618579762,"70":0.03607999528451655,"71":0.09861808351220606,"72":0.1452477161118781,"73":-0.08558463071708325,"74":0.19093628858158118}},{"sx":5,"sy":5,"depth":3,"w":{"0":-0.3278523200020302,"1":-0.07994352806009232,"2":-0.2025503613549404,"3":-0.062255565317703404,"4":-0.20437561870274823,"5":-0.41413497282152345,"6":0.13613081604977,"7":-0.439797517765754,"8":-0.0952173486483636,"9":0.22094480439134598,"10":0.07765901768050758,"11":0.048505418314193784,"12":0.1900887130606805,"13":-0.05625216198186611,"14":-0.10646769247564199,"15":0.24131378972886944,"16":0.10708835585413169,"17":0.10664581891524427,"18":0.1648267199814691,"19":0.20475794233082195,"20":-0.010109438758985683,"21":0.009297110517346364,"22":-0.4401743403150801,"23":-0.36430611230716103,"24":-0.042625836875048895,"25":-0.2498850969740006,"26":0.0233553115668522,"27":0.06929315125503165,"28":0.26092383552927023,"29":0.09049152440494268,"30":0.021357529895002565,"31":-0.02076957275739093,"32":0.13462122546220467,"33":0.005001728474092814,"34":0.10226787891927794,"35":0.06909319444825102,"36":0.09530949138387494,"37":-0.26652081915963877,"38":-0.1250760713373117,"39":-0.06600845069199368,"40":-0.08641038775267075,"41":-0.15151087025504958,"42":0.19636200876295604,"43":0.03409441813247632,"44":0.03842107559484529,"45":0.07480005724530797,"46":-0.017362075526867575,"47":-0.09117056644339556,"48":0.00032307781343130854,"49":0.2354977298955574,"50":-0.10680668066387798,"51":-0.1223309331660114,"52":-0.45622543581921615,"53":-0.28387096841633463,"54":0.08027846402015021,"55":-0.09005701785956233,"56":-0.031419114016970444,"57":0.10328831328912155,"58":0.020477083788290024,"59":-0.08922711391204881,"60":0.1286919573168884,"61":0.19915777097237733,"62":0.058780910398210574,"63":0.006749023058169479,"64":0.010947167200171675,"65":0.06204868149456118,"66":-0.08838666382588117,"67":-0.13223749279810912,"68":-0.07642809552716871,"69":0.05190845180602367,"70":0.014524304366430754,"71":-0.04263479738288496,"72":0.07231476299854914,"73":-0.15065649011906346,"74":-0.1959532025907925}},{"sx":5,"sy":5,"depth":3,"w":{"0":-0.11461015028786621,"1":0.14597184616622938,"2":-0.015499219145278563,"3":-0.08832713481300308,"4":-0.3934814485451519,"5":-0.3401193028721772,"6":-0.032031580721679616,"7":0.1141750137576545,"8":-0.28405903672783994,"9":0.015238239659414225,"10":0.3747385577373188,"11":0.026956634310211242,"12":0.01658608503173339,"13":-0.03440557021711512,"14":0.04787359933397983,"15":0.0030405925879477954,"16":-0.05962629896299631,"17":0.12062350793391106,"18":-0.21968952258446592,"19":-0.2667797296043284,"20":-0.14269447148483605,"21":-0.1486860424763533,"22":-0.27074866480208243,"23":-0.1950610023691553,"24":0.03309788869684117,"25":0.18045854196147817,"26":-0.11374818534158415,"27":0.14235543523921246,"28":0.22360379119037121,"29":0.09276162114748308,"30":0.04157661647818319,"31":-0.13441662890785108,"32":-0.08046751786810499,"33":-0.2833696414478029,"34":-0.25940254793820844,"35":-0.2414756292683472,"36":-0.0640124183602314,"37":-0.01644365661842866,"38":-0.25344036806318204,"39":-0.11317583663511838,"40":0.28261146556660993,"41":-0.11826933852915891,"42":-0.07752203199111489,"43":-0.03639824764118358,"44":0.16904611914886844,"45":0.14220594918339463,"46":-0.011612428407818839,"47":-0.1783555256372741,"48":0.0004918489757383095,"49":-0.2277692198905889,"50":-0.3388673309280536,"51":0.12674795799951397,"52":-0.030588203677411857,"53":-0.07491226004437519,"54":0.1077847447049512,"55":-0.012217149158701503,"56":0.016152763315474123,"57":-0.09914083595071954,"58":-0.08734812367934759,"59":0.022455426375406793,"60":-0.18484327689733898,"61":0.2284823072637578,"62":-0.12805414323052394,"63":-0.15037670722789082,"64":-0.11187773044095652,"65":-0.2559402447616871,"66":-0.08504163620527053,"67":-0.33132315753470076,"68":-0.17310501206045023,"69":0.0260755402851811,"70":0.09454345313899644,"71":-0.060514261978378045,"72":-0.019984763777333395,"73":-0.1413330703413385,"74":-0.047155436246367984}},{"sx":5,"sy":5,"depth":3,"w":{"0":-0.18621024960750585,"1":0.15080073944411168,"2":-0.07056470447368335,"3":0.035187087727415814,"4":0.08187416196498473,"5":-0.06854522185893473,"6":0.09846377820770535,"7":0.05941439290546928,"8":-0.1316343255566429,"9":0.0350740204477382,"10":-0.168173053713329,"11":-0.05869162596107477,"12":0.17801130553357614,"13":0.035257829610945375,"14":-0.17710704233616323,"15":0.15877508534084347,"16":-0.07823506159871388,"17":-0.16380379802286515,"18":0.057253628706297355,"19":0.20550737915556844,"20":0.0860229134918431,"21":0.13342457897977736,"22":0.0788056003019014,"23":-0.07844600685830586,"24":0.1550139764637148,"25":-0.1590834104467541,"26":-0.2333484784337356,"27":0.042872227642602664,"28":0.1428350855530088,"29":0.06294513721044147,"30":-0.3578908728298669,"31":-0.14964453970792851,"32":-0.023979214833748187,"33":-0.06378635156308478,"34":0.07382070867150804,"35":0.08925703052069513,"36":-0.4291326139821707,"37":-0.021251035010375452,"38":0.018369381815323726,"39":-0.45021543803205083,"40":0.028459626352934583,"41":0.16833692002573628,"42":0.057766322793277,"43":0.049169838688901506,"44":0.23531412066843574,"45":0.2158389863255569,"46":0.12562790705506532,"47":-0.06714404007236166,"48":-0.16009924500699216,"49":-0.172443121454004,"50":0.09139192896477363,"51":0.03402558237941539,"52":-0.1847906098779303,"53":0.13014965507727672,"54":0.2721277331024605,"55":0.006721975176167317,"56":0.24257115512938227,"57":-0.11495188235242985,"58":-0.047840106543909355,"59":0.040209796940964944,"60":-0.08641527168040769,"61":0.2974531957275244,"62":-0.04568022392573711,"63":-0.009336134916390805,"64":-0.07790771216958896,"65":-0.10446509641780524,"66":-0.09023977554546488,"67":0.03728557579484892,"68":0.0922775281339295,"69":0.2452312515921182,"70":-0.08577102944974335,"71":0.1026046337490875,"72":0.015366991464778134,"73":-0.05742595863054461,"74":0.09244028023205761}},{"sx":5,"sy":5,"depth":3,"w":{"0":-0.09624197594689894,"1":0.020166394216865356,"2":-0.28324060699924536,"3":-0.34776169971728227,"4":0.023535511055342302,"5":0.16951046768137584,"6":-0.14227949538658818,"7":-0.027660895680835358,"8":0.14712495867684758,"9":0.17549560319930535,"10":-0.2628889824706,"11":-0.10411964561132214,"12":0.20575359673152402,"13":-0.3720408540819764,"14":-0.2996609223629539,"15":-0.05479099592237224,"16":0.1206134835222042,"17":0.29385305687205304,"18":-0.2655931650516619,"19":-0.06847758239456894,"20":0.20303676366815931,"21":-0.2857280896483178,"22":-0.03690916998720126,"23":0.2592978645943195,"24":0.01014754968493198,"25":0.06299770574494828,"26":0.06465916988483313,"27":0.23853034061445877,"28":-0.23282567797444845,"29":-0.394267961122658,"30":-0.15512359030538833,"31":-0.04044077365042685,"32":0.019454801912412927,"33":-0.10857833549554712,"34":-0.05782789121987789,"35":0.15436171071991855,"36":0.008262414146146372,"37":0.08572621506126546,"38":0.28589356013331385,"39":0.14445827722007148,"40":-0.09100676933336724,"41":0.07637085834023415,"42":0.3331557957502783,"43":-0.1652542057250772,"44":-0.040232917189431124,"45":-0.12654427269694027,"46":-0.11724960402242149,"47":0.0584708073185542,"48":-0.15474318064624823,"49":-0.15942754743519214,"50":-0.19576737423512394,"51":-0.23515971851547296,"52":0.018908677543617483,"53":0.013727145233400202,"54":0.2960976110044235,"55":0.04211747783805833,"56":-0.16516110744377557,"57":0.11880865005648328,"58":0.07534498785199391,"59":-0.2657968139674976,"60":-0.1200096362018915,"61":-0.10705818195415255,"62":0.22039893336342883,"63":-0.0714780749574985,"64":0.05570064398768137,"65":0.006003364250336807,"66":0.05797409314042071,"67":-0.022190997487374145,"68":0.0651448926938702,"69":0.10189770400059564,"70":0.0787887908229286,"71":-0.07481282077374347,"72":0.025498747800174866,"73":-0.2921431769968998,"74":-0.1639943091741609}},{"sx":5,"sy":5,"depth":3,"w":{"0":0.2257538735646552,"1":0.15648853573365207,"2":0.01770558351653385,"3":-0.23108573636160706,"4":-0.15730005017748666,"5":-0.023609313918129468,"6":-0.08039517960559373,"7":-0.17703549254364562,"8":0.16145412452554014,"9":-0.3063862039083238,"10":-0.12155018722908745,"11":-0.11283369292206069,"12":-0.0835882740236716,"13":-0.06273798202962795,"14":-0.1380638475722289,"15":-0.12863389444234005,"16":-0.4147250826823167,"17":-0.24324387136168235,"18":-0.19154063627315607,"19":-0.1520042838522827,"20":-0.15280043872305066,"21":-0.2282757663521503,"22":-0.13122485187102456,"23":0.16362667900609748,"24":-0.2183109351101502,"25":-0.20506119553347515,"26":-0.07770567402062496,"27":0.3414630847736384,"28":0.11862868031472798,"29":-0.0716791225290161,"30":-0.501688239113279,"31":-0.36553749766471577,"32":-0.053653749047584645,"33":-0.23217091659717498,"34":0.032702259398292736,"35":-0.1848703272471023,"36":-0.12773853622769452,"37":0.0631842791842243,"38":-0.15421270483143104,"39":-0.3257593840101414,"40":-0.3980418601752962,"41":-0.06325851364405242,"42":-0.10322952644021376,"43":-0.03231654140824195,"44":0.14708749781603642,"45":-0.025063284170317352,"46":0.15867045565700544,"47":-0.008145008096084348,"48":0.20091835566308952,"49":-0.010368947927504696,"50":0.07536026576942473,"51":0.29037791003092855,"52":0.22879956969935536,"53":0.0534316241793208,"54":0.19418584318655233,"55":0.058382588223271185,"56":0.04799682237546082,"57":0.2833590696337218,"58":0.1198674891223561,"59":0.03620043937405752,"60":-0.010916057044835583,"61":-0.11372195899541923,"62":0.030524533620272302,"63":0.06467227789756644,"64":-0.08965815631180782,"65":-0.32536263690535316,"66":0.06632837084612364,"67":0.03132208466895593,"68":0.0745529037175569,"69":-0.015692001526938438,"70":-0.23661243384192687,"71":0.05302235243299191,"72":-0.000166175435881252,"73":0.06449647658265703,"74":-0.09516608565104846}},{"sx":5,"sy":5,"depth":3,"w":{"0":0.012292624722601246,"1":-0.16054390460922527,"2":-0.07390581588179904,"3":-0.12830112996001755,"4":-0.038222071708689874,"5":-0.07023129511199311,"6":0.1615678212380498,"7":0.4414833525943304,"8":0.17689183935846692,"9":-0.20796658553901057,"10":-0.17835939436191026,"11":0.038207182525160144,"12":-0.07783342936930261,"13":-0.26881195914634226,"14":0.059823700539077214,"15":-0.09585379585073653,"16":-0.11648811599761763,"17":0.2294084208566208,"18":-0.21435883731271885,"19":-0.24826154109695642,"20":0.2763437641147646,"21":-0.26341057150656244,"22":-0.43335349868988715,"23":0.10315000314207255,"24":-0.4794582728486109,"25":-0.46068626242871114,"26":0.07242743118034486,"27":-0.08200794026858894,"28":-0.07522929982430357,"29":0.28943267190052974,"30":-0.015779982493818068,"31":0.12229092388716994,"32":-0.0745941959399793,"33":0.3587620410504267,"34":0.07561710164838092,"35":0.025462512620823104,"36":-0.17642072061751662,"37":-0.21229386117851257,"38":-0.4373059944215354,"39":0.06905348885140487,"40":0.035869991596274305,"41":-0.07579508077913923,"42":0.2027948897541917,"43":0.14807764426896208,"44":-0.1858544591495222,"45":0.1821366443387587,"46":-0.016678649781144247,"47":-0.2077839666375506,"48":0.1354554113612316,"49":0.14349894202345953,"50":-0.1290643522249524,"51":0.026221080961202185,"52":0.19260183310192366,"53":-0.0623582288212991,"54":0.056068584552159295,"55":0.09011968435700919,"56":-0.12172859252095951,"57":-0.0284401731495368,"58":0.11239995944705816,"59":-0.08509489265200465,"60":0.1381624354498731,"61":0.0858610990784923,"62":0.0056790916018687135,"63":-0.060275131491126135,"64":-0.14022292577100173,"65":-0.2414000066318281,"66":0.15090461837753577,"67":0.09451295315547849,"68":-0.04125564606036282,"69":-0.05534752003739988,"70":-0.1490762826216703,"71":0.10225756995580114,"72":0.09037807990351897,"73":0.15255883129703043,"74":-0.24945168170811324}},{"sx":5,"sy":5,"depth":3,"w":{"0":0.1837380422113523,"1":-0.042401803363875896,"2":-0.1449730697753347,"3":0.11945920822151088,"4":0.17360901810583487,"5":0.02296988996360874,"6":-0.13642100216880593,"7":-0.5303387465517867,"8":-0.21433813448299097,"9":0.12089200260727144,"10":0.1552438529916103,"11":0.040591632801905426,"12":0.049279977011520315,"13":-0.03604761410341732,"14":0.015605669906760383,"15":-0.02523485334350901,"16":0.13682833666390534,"17":-0.16099576675150815,"18":-0.04713254163159314,"19":-0.23293111172678974,"20":-0.3948153576211834,"21":0.14565689603430834,"22":0.14811955756454603,"23":0.07398687196981281,"24":-0.2311050554822538,"25":-0.16383886036217812,"26":-0.38306131096493296,"27":0.16872851500167474,"28":-0.13948857488056396,"29":0.06662904299614267,"30":0.3253402831179084,"31":-0.11865525907654263,"32":-0.2614872275995417,"33":-0.13136415667395795,"34":-0.4110683793283307,"35":-0.38720804321846536,"36":-0.030975462755436108,"37":-0.21735921573267347,"38":-0.0013410716433197344,"39":-0.32480896199355763,"40":-0.18576967290547258,"41":-0.24795015482122154,"42":0.08664841162552644,"43":-0.042686748399925735,"44":-0.2249871598192028,"45":0.20051133835825993,"46":0.05557528698344572,"47":-0.19689871850453622,"48":-0.025447237510172013,"49":0.05995491452818936,"50":-0.1963763207085419,"51":0.20326967036141047,"52":-0.06155672819290711,"53":-0.13864693734723257,"54":-0.13449119034048168,"55":0.054719112367622516,"56":-0.1672517074075178,"57":0.05174880894644156,"58":-0.016161264457260505,"59":-0.34605464093841287,"60":0.2291910122262356,"61":0.09301956071446457,"62":-0.007438624218351065,"63":0.21503577913937386,"64":0.205145668118152,"65":-0.06720802639310869,"66":0.028398739885742944,"67":0.1623975497055495,"68":-0.07943718001180641,"69":0.050971504598825185,"70":0.1615096054472142,"71":0.06597765778099657,"72":0.032142998334463865,"73":-0.01591061621850899,"74":-0.17428404730088892}}],"biases":{"sx":1,"sy":1,"depth":18,"w":{"0":0.2717667930250144,"1":-0.14309685490339571,"2":-0.011472463056249268,"3":0.03586248819037131,"4":-0.021824803718601758,"5":-0.05856823446243937,"6":-0.049611701635549545,"7":-0.1155425213176852,"8":0.19962431309351555,"9":0.14567972506511814,"10":0.12232779878616504,"11":0.0007612682007052691,"12":-0.16211101691112473,"13":-0.09372118716968278,"14":0.007078527875791003,"15":-0.08198775643417086,"16":-0.15505738030584412,"17":0.04258767369789399}}},{"out_depth":18,"out_sx":96,"out_sy":96,"layer_type":"relu"},{"sx":4,"sy":4,"stride":2,"in_depth":18,"out_depth":18,"out_sx":47,"out_sy":47,"layer_type":"pool","pad":0},{"sx":5,"sy":5,"stride":1,"in_depth":18,"out_depth":20,"out_sx":47,"out_sy":47,"layer_type":"conv","l1_decay_mul":0,"l2_decay_mul":1,"pad":2,"filters":[{"sx":5,"sy":5,"depth":18,"w":{"0":-0.21119105758946824,"1":-0.045146767087828256,"2":-0.09748157464495467,"3":-0.01433674710453317,"4":0.17773469158603272,"5":0.19841507195024577,"6":0.05051693384833829,"7":0.13640052243088197,"8":-0.12370511208989307,"9":-0.06557951045622014,"10":0.0317773095420692,"11":0.1332654814222224,"12":-0.03754695247776158,"13":0.11119897787578883,"14":0.23075871340797044,"15":-0.08662698365121388,"16":0.18381976958076224,"17":-0.012414896948220722,"18":-0.24207842541323915,"19":-0.10942241933121469,"20":-0.08975523600636857,"21":-0.01740928365053022,"22":0.1128131429602974,"23":0.2932995930891578,"24":0.08131903120069238,"25":0.2551806004023484,"26":-0.05304507427722352,"27":-0.05963551751295598,"28":-0.00878314241807609,"29":0.2292078183642905,"30":0.0412296984824699,"31":0.04933207005535003,"32":0.13539280250872093,"33":-0.16993353210592899,"34":0.09774902057302032,"35":-0.04061262202724212,"36":-0.2600703757323438,"37":-0.14689048629483473,"38":-0.08847468144546321,"39":-0.0796931704075247,"40":0.12758126819572307,"41":0.12988345348673183,"42":-0.08717971185516306,"43":0.10032110745909269,"44":-0.10509064819509703,"45":0.07518399340328588,"46":0.002791417456250678,"47":0.1556318344759817,"48":0.0829483888387096,"49":0.036415863394823646,"50":0.0717107438437411,"51":-0.176295418914705,"52":0.06813941449882398,"53":-0.004445601335995201,"54":-0.3342037930794898,"55":-0.13005590370772466,"56":-0.15218259246461835,"57":-0.024201512082135387,"58":0.1627317660849508,"59":0.20759700840008913,"60":-0.09790119492418625,"61":0.06661724468167586,"62":-0.18000764954259338,"63":-0.012154904022772329,"64":0.02526813389058324,"65":0.017383716309963777,"66":-0.08274848938891463,"67":0.010383704151975202,"68":-0.10458109185329811,"69":-0.19111856730551632,"70":0.0934127542147392,"71":0.05505191664582752,"72":-0.17324241739514323,"73":-0.013993979980628788,"74":-0.04344909443875125,"75":0.10233320682041244,"76":0.07604657224712964,"77":0.0967409806564113,"78":-0.08860422335135844,"79":0.24511317468754534,"80":-0.1959266448100214,"81":-0.09659733446327405,"82":0.05307866073517763,"83":-0.015152527218490006,"84":-0.019485769552532645,"85":-0.1422023190765136,"86":0.007350334550092049,"87":-0.13923955771011254,"88":0.15565023805181244,"89":-0.060329348306229165,"90":-0.14122688602877453,"91":0.11579946746974973,"92":0.055007701736667934,"93":0.07132573905159634,"94":0.281189716599432,"95":0.0855562354957373,"96":0.08919314438748918,"97":0.2168271680371414,"98":0.006441893800543363,"99":0.01209562319578527,"100":0.09159418534805172,"101":0.11759109163681795,"102":-0.012246152362291079,"103":0.22544446649639763,"104":0.029644952068866366,"105":-0.010388583095185805,"106":0.1329734236538007,"107":0.06514035368199661,"108":-0.21270291349929832,"109":0.06819993724262066,"110":-0.037419262524371846,"111":0.012049116549521347,"112":0.1770223750929086,"113":0.2228565960736023,"114":0.025657719962307552,"115":0.15217137244179452,"116":-0.06387673318512939,"117":0.027925386224878165,"118":0.16414912615596045,"119":0.1892224114789369,"120":0.0659080393795551,"121":0.11709352894818337,"122":-0.07794698887160546,"123":-0.20987349398292793,"124":0.12036917363495654,"125":0.029368715259122283,"126":-0.3793238971545329,"127":0.04044465145043218,"128":-0.030465223348409426,"129":-0.14619538593370832,"130":0.01705000045505815,"131":0.18484201780815016,"132":-0.15846329610462342,"133":-0.0010974396843603741,"134":-0.1555777277494645,"135":0.05558980356865392,"136":-0.04878480318382118,"137":0.045229261066941785,"138":0.11684933427451183,"139":0.06535256758487802,"140":-0.2032857873576938,"141":-0.15353487814455777,"142":0.031194073830736788,"143":-0.06429075802831417,"144":-0.2188401658408238,"145":0.05330233294773234,"146":0.006573213476149745,"147":-0.013092347500309538,"148":0.16273961287106709,"149":0.16985494116571062,"150":-0.14572546719573057,"151":0.07870592125635771,"152":-0.15851940856731672,"153":0.11521345013017852,"154":-0.04428073589417091,"155":-0.05818378203671521,"156":0.038075101624291334,"157":0.0937646714029246,"158":-0.1769953911237174,"159":-0.1251955333475644,"160":0.05692780646617528,"161":0.01888368725759925,"162":-0.34341235067747594,"163":0.08367733060062972,"164":-0.07668802944781956,"165":0.0850290200253788,"166":0.2519004500310922,"167":0.0867972284813961,"168":-0.06922127333193226,"169":0.24827376227047127,"170":-0.19109775877317023,"171":-0.003039379689375844,"172":0.1338232442545156,"173":-0.09062497080926286,"174":-0.03904449723183312,"175":-0.07576928549700968,"176":-0.025847877935125923,"177":-0.1868982079665133,"178":0.1272018222620659,"179":0.030702302408332525,"180":-0.31693105300470115,"181":0.2078461171221811,"182":-0.02402262037815713,"183":-0.16226575035878218,"184":0.11735056510903576,"185":0.013199010280513223,"186":0.10554578159662717,"187":0.06890773303578297,"188":-0.03807923878454421,"189":-0.0821286865945314,"190":0.09054610014821009,"191":0.13281152752881478,"192":-0.1482080899025216,"193":0.07207356417579881,"194":-0.06590405528728713,"195":-0.16320346291481364,"196":-0.015957672145711574,"197":0.11100812052647789,"198":-0.299568671507253,"199":0.045056850331237366,"200":-0.07934584939338922,"201":-0.21628091741022656,"202":-0.005647729232230447,"203":0.21188358405324326,"204":0.07476727500030429,"205":-0.05396857848377833,"206":-0.16217973913963424,"207":0.040040587256451945,"208":0.16610904871733215,"209":0.14646474066884663,"210":-0.06295803242061719,"211":0.04758020315401327,"212":-0.11441158505860055,"213":-0.346103082915103,"214":0.0023725943690273035,"215":0.12217886604438503,"216":-0.3423572226195459,"217":0.053308796863781815,"218":-0.052592240077219694,"219":-0.3961755193330451,"220":-0.05064521228215469,"221":0.09478417920575019,"222":-0.19575359151192834,"223":-0.11989181036501613,"224":-0.17372510383552642,"225":-0.16346599083398436,"226":0.09955160187344415,"227":-0.04915455325631629,"228":0.035869494258525855,"229":0.08005800345721605,"230":-0.05697075724800154,"231":-0.4210114464908705,"232":-0.11282364538918752,"233":0.049181716651146165,"234":-0.33695048541045,"235":0.08229282617686944,"236":-0.059172354898889085,"237":-0.20898946610928448,"238":-0.03393852275757102,"239":0.07812342831050724,"240":-0.03817068802722485,"241":-0.12506801986991997,"242":-0.16473504776837872,"243":-0.0362390938774382,"244":0.09086581057858924,"245":-0.23424496995973515,"246":-0.09481031557341509,"247":-0.1175826533590854,"248":-0.09965852187834473,"249":-0.3577094253366661,"250":-0.1614146828177821,"251":0.021726682399263772,"252":-0.2238448766947865,"253":0.1689103707578214,"254":0.021222172916480857,"255":-0.010988813353896305,"256":0.005492997910832217,"257":0.015438378282564056,"258":-0.04160652659106411,"259":0.0889256610951597,"260":-0.11216840948801556,"261":-0.2226270440087919,"262":0.12685606564902308,"263":-0.16325037064020254,"264":-0.15106769684323595,"265":0.03437937128755826,"266":0.03212689108119166,"267":-0.2451378645759097,"268":-0.1748757899854075,"269":0.11080566260236296,"270":-0.3640125777316107,"271":0.10823109433735491,"272":-0.1030479637097461,"273":-0.3958785700052559,"274":0.009178598128242114,"275":-0.03373255126538436,"276":-0.004480179743697227,"277":0.06920083716863398,"278":-0.14830654276878388,"279":-0.1736315906801511,"280":0.1199611623409864,"281":0.029391200469402693,"282":-0.2506906505446456,"283":-0.0061491303124800376,"284":-0.06224217821430799,"285":-0.2864851840830593,"286":0.18730827449304507,"287":0.10727611712616972,"288":-0.4231570456562197,"289":-0.024448805417377747,"290":-0.05391863893942475,"291":-0.42147291852107627,"292":-0.10381810338527851,"293":0.04843715797859115,"294":-0.1671949726934394,"295":0.06463263281703009,"296":-0.26037859759864473,"297":-0.19514725458838164,"298":0.19634774498849114,"299":-0.12970338954961547,"300":-0.31724841781732305,"301":-0.007788702591359403,"302":0.09814388137635752,"303":-0.26059632258715965,"304":0.05231059996480007,"305":0.11734661977927709,"306":-0.23102591004097933,"307":0.08948968975229885,"308":-0.1323994859341302,"309":-0.4081533069567242,"310":-0.030947763706794876,"311":0.07670176621372901,"312":-0.22091402259955906,"313":0.05080737571879835,"314":-0.08988984925520602,"315":-0.22609141561686963,"316":0.021678275717373484,"317":-0.03878282611246221,"318":-0.1958764309346629,"319":0.013569795353490215,"320":0.09307194337919508,"321":-0.17715521915250002,"322":0.19438282300226012,"323":0.10149161893282851,"324":-0.3531033341549011,"325":0.026451654904569057,"326":-0.06562068703312265,"327":-0.38111696005063606,"328":-0.05120247338999048,"329":0.08092262887579138,"330":-0.14606051135465475,"331":-0.009117829030847652,"332":-0.02779952951957829,"333":-0.21012584125977032,"334":0.15205213185007183,"335":-0.0027815085639992855,"336":-0.16211544841893394,"337":-0.05459069345955856,"338":0.09114358021278228,"339":-0.2648437193539821,"340":0.14259910053172664,"341":0.08494729060550356,"342":-0.39397521244346106,"343":0.21453374403925993,"344":-0.12489440280310575,"345":-0.2618297083363025,"346":0.03293139853358686,"347":-0.09155902203693266,"348":-0.13048527061130794,"349":-0.03121224808668005,"350":0.04691741637570642,"351":-0.11808800012139306,"352":0.18108955607963687,"353":-0.10253164775416518,"354":-0.19009799699600582,"355":-0.08340923513680555,"356":-0.016063191847697156,"357":-0.16858700930263756,"358":0.1257181821009659,"359":0.06950533399478037,"360":-0.24443673725346737,"361":-0.18499699004024178,"362":-0.18304847443864505,"363":-0.2317220761153541,"364":-0.051084361344156955,"365":-0.16400244695393562,"366":-0.011393055531663717,"367":-0.013108938052790101,"368":-0.20513085206114487,"369":-0.15879826057067536,"370":-0.0009743029600008601,"371":-0.07154108655126476,"372":-0.2706068801684372,"373":-0.22514260840131806,"374":-0.052337066511483066,"375":-0.10617369161500295,"376":0.2327432942561735,"377":-0.17997780392100174,"378":-0.26799427572781226,"379":-0.09295461575994074,"380":-0.13810910558155032,"381":-0.21350380087031293,"382":-0.04602083856038415,"383":-0.10019149572297167,"384":-0.09099797179931668,"385":0.0997427362667383,"386":-0.15448405055484918,"387":-0.1358761751460941,"388":-0.022479256171569227,"389":-0.04096708497336051,"390":-0.2453072379251349,"391":-0.03197934420771067,"392":-0.13012533175883795,"393":0.04857372289177774,"394":0.3147542428775442,"395":-0.06375605154514515,"396":-0.3650740714204002,"397":-0.008608208810946323,"398":-0.12833844547773568,"399":-0.2143192940403946,"400":0.015917569191036342,"401":-0.04620833386938811,"402":-0.01769622380902172,"403":0.0969451138220287,"404":-0.026650317243009727,"405":-0.1377817383848504,"406":0.11254224279499447,"407":-0.06211053234949693,"408":-0.35325500839403534,"409":-0.0470225163437209,"410":-0.04999584353469894,"411":0.16040086199076023,"412":0.22728483389661466,"413":0.12081110383398659,"414":-0.28671124648317375,"415":-0.07531828936685454,"416":-0.05336786717469235,"417":-0.16088471052893635,"418":0.1969752629867504,"419":-0.12948151278402337,"420":-0.07863507476945611,"421":0.027304792841178368,"422":0.017877084004995332,"423":-0.047677221048046836,"424":0.08453270791737744,"425":0.03088725542908955,"426":-0.21223404189141187,"427":-0.07899331659655835,"428":-0.023249500496274025,"429":0.11305839962017733,"430":0.2295274679885288,"431":-0.016532723411594154,"432":-0.26779360374131145,"433":-0.058780061510572836,"434":-0.15071743436620563,"435":-0.1908500602485462,"436":0.09619475585715015,"437":-0.12366795941719545,"438":0.05543093472385624,"439":0.06161204277521687,"440":-0.031796138026643786,"441":-0.2384394079379054,"442":-0.046127407154619514,"443":0.018896098145614416,"444":-0.25939603517154364,"445":-0.047699708962896686,"446":-0.08037616331996614,"447":0.14432608807929437,"448":0.252818763271939,"449":-0.11274913742007427}},{"sx":5,"sy":5,"depth":18,"w":{"0":-0.09447030510644101,"1":-0.06307419995572021,"2":-0.26040045150324387,"3":0.12015771767696203,"4":0.23660497053277385,"5":-0.04911666171501318,"6":-0.04271131948737127,"7":0.3962952698177402,"8":0.10885607744736726,"9":-0.0404709684809226,"10":-0.03016969133840131,"11":0.13273840311802995,"12":-0.1417607497307223,"13":-0.09666881940854771,"14":-0.03898447258237311,"15":-0.0016149171350037551,"16":-0.18421257225826213,"17":0.20578749371357727,"18":-0.13311821338252228,"19":-0.14913016947661242,"20":-0.20217325043516104,"21":0.009109117290239846,"22":-0.01260274907097405,"23":-0.051493088118432485,"24":-0.09991568637733295,"25":0.015866526277017127,"26":0.09830818998683219,"27":-0.07795524967585463,"28":-0.1713500524665291,"29":0.15667875225369854,"30":-0.08886111050696473,"31":-0.09934147401440926,"32":-0.2668160427251408,"33":-0.1613808906462833,"34":-0.06641284376759303,"35":0.11852145570458038,"36":-0.1084764062916411,"37":-0.10198751461199632,"38":-0.11553473381224345,"39":-0.010807694911453478,"40":-0.16650574402205015,"41":-0.0850728458988572,"42":-0.1513437677801886,"43":0.03920563794237473,"44":0.0020041909631370513,"45":-0.07152177672567725,"46":-0.24995735106326536,"47":-0.06885124032693642,"48":0.054821884016755335,"49":0.01523977287800416,"50":-0.17561536363537225,"51":-0.1752084934127961,"52":0.09096638766094649,"53":0.03085408695942057,"54":0.010852195324740906,"55":0.014157609191847881,"56":-0.00799158247860571,"57":0.0983225005525297,"58":-0.18401641417651793,"59":-0.15945921093582302,"60":0.1260190323781781,"61":-0.012917831469923665,"62":0.025735055008576327,"63":-0.009331430870407775,"64":-0.2882672910156665,"65":-0.24256317839497699,"66":-0.0628131897216572,"67":0.06867505294238052,"68":-0.18987810360201088,"69":-0.04816523922279623,"70":-0.030070723711103677,"71":-0.038487645385463086,"72":-0.03223424504711359,"73":-0.08729858866170286,"74":-0.12607957120435212,"75":-0.060753925563614475,"76":-0.136063740681718,"77":-0.02108221558217502,"78":-0.017341092393517287,"79":-0.055127980734108815,"80":-0.10099208573112149,"81":-0.03523204603009096,"82":-0.24079808154950022,"83":-0.11742978488892632,"84":-0.17321645591710771,"85":-0.1399742906908469,"86":-0.18555765610804967,"87":-0.06286573615132306,"88":0.043613121424913186,"89":-0.034866463127071035,"90":-0.012709483393315292,"91":0.17886510513852252,"92":-0.012417237091445724,"93":-0.018394991585803402,"94":0.3087176956138809,"95":-0.002329297768033725,"96":0.024909244874640538,"97":0.2794151205232961,"98":0.28700246500115184,"99":0.0077475402604233875,"100":0.06813024375942074,"101":0.2242471818489385,"102":-0.1130708723492793,"103":-0.22806545156068825,"104":0.13098377946243778,"105":-0.10066362316067921,"106":-0.3746819879769038,"107":0.18476229520507204,"108":-0.07675697792529379,"109":0.06561281765579105,"110":-0.0665728763628626,"111":-0.10203484076715494,"112":0.05360288837183354,"113":0.07831395171503346,"114":-0.11134850747888414,"115":0.1009157426469535,"116":0.12171728203798009,"117":-0.0180668479638952,"118":-0.0822048391394694,"119":0.17390517867900027,"120":0.04996849862130413,"121":-0.1117014730523398,"122":-0.07973111510849984,"123":-0.034426886989667387,"124":-0.29484670888827424,"125":0.0585391104767079,"126":-0.03255124292334228,"127":-0.03293355514569426,"128":-0.11494352975359788,"129":-0.0321035010929304,"130":-0.12993520186051516,"131":0.05420568035589717,"132":-0.10439008688055577,"133":0.03939283562088813,"134":0.0884681770516452,"135":-0.09608897378206044,"136":-0.166303927982143,"137":-0.1765023531669004,"138":0.07756766399985467,"139":-0.1814987094895667,"140":-0.11613298403069507,"141":-0.20404500664249206,"142":-0.0705632206002986,"143":0.09457653679184709,"144":0.03511258409740839,"145":0.07735012708126607,"146":-0.08670960928277582,"147":-0.003434210465560478,"148":-0.26981771905382546,"149":-0.06322548635627055,"150":-0.046230468025017527,"151":-0.08303717471414136,"152":0.0444431915055978,"153":0.048639812010976675,"154":-0.11203636628005452,"155":-0.21064170565508247,"156":-0.10725808381909642,"157":-0.37312719766117286,"158":-0.10015479784104009,"159":-0.06022385428494645,"160":-0.07463380734610352,"161":-0.07412884496063203,"162":-0.10531355071656855,"163":-0.04664365987190545,"164":-0.08465669938804882,"165":-0.11257690280575045,"166":-0.15857859936411148,"167":0.088511591484212,"168":0.08700138332332621,"169":-0.13451411312094785,"170":0.07216738239132807,"171":-0.07995030992461748,"172":-0.16109113141289857,"173":-0.10935664064974053,"174":-0.026308316934488624,"175":-0.2971107951956687,"176":-0.015716193807006312,"177":-0.13895505476211673,"178":-0.045686530398281716,"179":-0.16094422530287483,"180":-0.008068527177285947,"181":0.03681583406746452,"182":0.032623792932463105,"183":-0.07919856259444338,"184":0.07966703807746789,"185":0.13241441230173415,"186":0.055669845626812556,"187":-0.047050605344070115,"188":0.09376630289164846,"189":0.05486048564482799,"190":-0.04406467208445309,"191":0.02299204019485277,"192":0.041112984450699636,"193":0.019461582574551158,"194":0.12323147966896562,"195":-0.1467970075813622,"196":-0.32918122994388904,"197":0.13820588915408932,"198":-0.04916604348501089,"199":-0.04793112397306561,"200":0.09712404372393141,"201":-0.1501124145215548,"202":-0.05332631259269195,"203":0.22344759034504066,"204":-0.04875789388079416,"205":-0.08801163454403012,"206":-0.03353014672025911,"207":0.05555497667059426,"208":-0.09391714155353129,"209":0.12208800887752003,"210":0.040671257452883636,"211":0.07316509962035467,"212":0.009347956320689054,"213":-0.19780606345064672,"214":-0.14031632321750145,"215":0.04144963269569287,"216":-0.04275615608863915,"217":-0.048054337586666045,"218":-0.00418062808045617,"219":-0.01222724341957935,"220":0.054601235094921735,"221":-0.06011058679656477,"222":-0.13764000457626094,"223":0.023504642184188986,"224":0.011395108832933928,"225":-0.10433231701346628,"226":-0.1703115757066374,"227":-0.07450238072186001,"228":0.008323197413029235,"229":0.07756590093838452,"230":0.042149378330328675,"231":-0.060323412385071086,"232":-0.10833632872034314,"233":0.006657623121970169,"234":-0.062232925919967555,"235":-0.09862369640853141,"236":-0.0831459718462308,"237":-0.0010260433772584301,"238":-0.0706123220998986,"239":-0.05233510365467744,"240":0.02078990788475531,"241":0.008413019545683284,"242":0.11882456378259758,"243":0.014360463867455833,"244":0.018338573769849542,"245":-0.17653486585929817,"246":-0.09431164998241387,"247":0.08391950269571177,"248":0.030340242570399783,"249":-0.11108875871821391,"250":0.1283439669229578,"251":-0.10117085352920992,"252":-0.056271131081270846,"253":-0.13121193539474219,"254":0.05462932114951901,"255":-0.06289919686504795,"256":-0.027946544218767362,"257":0.07014129361005607,"258":-0.021026252880215666,"259":-0.1092619510623222,"260":0.012432508349411365,"261":-0.0798889225466273,"262":-0.025161382539506463,"263":-0.022650342939610702,"264":-0.023632941991061078,"265":0.040761841380232915,"266":-0.013432007820071047,"267":-0.08109457278290864,"268":-0.02870064932484445,"269":-0.13069430793692538,"270":0.043869270218196844,"271":-0.17193172466200168,"272":-0.006262167502081555,"273":-0.1482229178261906,"274":0.01817844452717997,"275":0.07403618125395423,"276":-0.005473231755059485,"277":0.02044259163837769,"278":-0.20997505060293087,"279":0.24294580041470876,"280":0.14628161435193243,"281":0.05406439735704428,"282":0.016797656151581748,"283":0.059573282445337876,"284":0.010190223974685499,"285":-0.27465318110015696,"286":-0.135020925343368,"287":-0.09320006730234714,"288":0.019104776551983026,"289":-0.1117517136584037,"290":-0.07776894545988272,"291":-0.07046870028173914,"292":-0.16929004864490743,"293":-0.011234802429462154,"294":-0.11476587108971163,"295":-0.014513891641862894,"296":-0.2381927888799132,"297":0.1078038185784012,"298":0.0619199385020904,"299":-0.013049899516143909,"300":-0.031422534965676874,"301":0.0530368828385867,"302":0.07203951050598399,"303":-0.26213056783527994,"304":-0.13238741187890943,"305":-0.29932903573348313,"306":-0.08106115154411761,"307":0.02411606421913379,"308":-0.19212002401540815,"309":-0.08408677618376638,"310":-0.18616872305226254,"311":-0.0720889409079662,"312":-0.11356797637250285,"313":-0.05464862895804619,"314":-0.11324117984131453,"315":-0.05131921709538174,"316":0.028278663542336796,"317":-0.0892011554920929,"318":-0.020483844464598198,"319":0.17480523014150526,"320":0.01773299336362311,"321":-0.2134243089630061,"322":-0.011168096302544353,"323":-0.20070345124949934,"324":0.010993773461229508,"325":-0.04093428232659315,"326":-0.195532950125871,"327":-0.003956028555419926,"328":-0.10943967315954323,"329":-0.08722899482510568,"330":-0.07019105289434162,"331":-0.11452520170415668,"332":-0.024645683267334403,"333":0.023842824418990088,"334":0.03448188745375279,"335":-0.07834616172445721,"336":-0.05255563450724398,"337":0.07437148813438207,"338":-0.027590721896541562,"339":-0.03967137469156155,"340":0.04109093426630635,"341":-0.12927831110444848,"342":-0.047437162010457695,"343":-0.05380525765017372,"344":-0.20225807717796712,"345":-0.044451163155239316,"346":-0.06755379532222794,"347":-0.03330646093361483,"348":-0.06093447537888076,"349":-0.0003606435477386175,"350":-0.10769723670720784,"351":-0.0549914601689584,"352":0.059713705889006846,"353":-0.0342762346374532,"354":-0.07592102051117514,"355":0.17869667857238317,"356":0.06226902693443051,"357":-0.06928857578668404,"358":-0.08384028252423861,"359":-0.0764569918728715,"360":-0.022973220924996277,"361":-0.022294937094379314,"362":-0.06464461119028442,"363":-0.08627848243231628,"364":-0.049637553115710324,"365":-0.11820976817990672,"366":0.016555537021113124,"367":-0.09307092338759887,"368":0.006119713332552254,"369":0.05285778102777628,"370":-0.06895873179989688,"371":0.06949677097816503,"372":-0.024011461119374196,"373":-0.20925119328092714,"374":-0.10102651509751358,"375":-0.16951194533050315,"376":-0.24655980862413962,"377":-0.24858123318174372,"378":0.005690195291047088,"379":-0.09098102243492097,"380":-0.09960389761862669,"381":-0.0806641064524226,"382":-0.1288847977994523,"383":-0.13244909564489166,"384":0.006878065289574686,"385":-0.009626495473148287,"386":-0.10288239634644947,"387":0.02779712971363883,"388":-0.04706657721643873,"389":0.01701007898078227,"390":-0.004938176902576929,"391":-0.20585284678720914,"392":0.0771251611963777,"393":-0.11205921270493889,"394":-0.15649768888200005,"395":-0.23377933558652855,"396":-0.01638970128614293,"397":-0.02240773877174939,"398":-0.21034786448785422,"399":-0.049969430284087936,"400":-0.08626104024522518,"401":-0.05084209809723524,"402":-0.13320817684044112,"403":-0.12047120974751499,"404":0.0019054487747087903,"405":-0.07137756156507838,"406":-0.08360592958923636,"407":-0.031829318379219707,"408":-0.03813966539299646,"409":-0.22387326830603765,"410":0.04952799437913019,"411":-0.15899777942749876,"412":-0.014512286516143212,"413":-0.12533211831465782,"414":-0.05484455639235588,"415":-0.11646922783364341,"416":-0.1462762373906217,"417":-0.09167701929333102,"418":-0.15458067286103724,"419":-0.08329898264376386,"420":-0.13140133499011958,"421":-0.01735908443038577,"422":-0.021870279255515036,"423":0.01581264583128888,"424":-0.04635932212010386,"425":-0.0047535840176231555,"426":-0.04467801926917834,"427":-0.17409951510610935,"428":-0.07426615150751026,"429":-0.1294074306170253,"430":-0.04136506628270496,"431":-0.12931774343199431,"432":-0.041381361760151635,"433":-0.16307191859303663,"434":-0.18947598524161796,"435":-0.09649478782187762,"436":-0.10109772035632027,"437":-0.03211714847543433,"438":-0.1287548014500838,"439":-0.09177720850711679,"440":-0.055485224417555344,"441":-0.04468717870734197,"442":-0.13210542774096656,"443":0.03761499251662086,"444":-0.0897584150964967,"445":-0.2545572553521814,"446":-0.0951191640904262,"447":-0.15901271160389321,"448":0.045304536352319576,"449":-0.15057215191828802}},{"sx":5,"sy":5,"depth":18,"w":{"0":0.025020348057564302,"1":-0.1541011706120087,"2":-0.02853500912449249,"3":-0.053190863461982124,"4":-0.01787821112058664,"5":-0.030937099598330745,"6":-0.05053059297269977,"7":-0.1271946187400571,"8":-0.028425186526050212,"9":-0.0797084996214556,"10":-0.08538564244130618,"11":-0.1815674606554635,"12":0.0759512632126557,"13":-0.017152149649418948,"14":-0.18874890972499697,"15":-0.1312501810978136,"16":-0.17535639359129024,"17":-0.03097700709094322,"18":-0.05804978467867108,"19":-0.10468467305214953,"20":-0.04886813644259275,"21":-0.1006068996052912,"22":-0.028573563334759782,"23":-0.050820141662575806,"24":-0.044428705856104665,"25":0.008375957218499637,"26":-0.1071668694378604,"27":-0.06397200253433034,"28":-0.06410189345231598,"29":-0.19197111799097905,"30":-0.08622485991079509,"31":-0.00783990789221156,"32":0.01754180415570966,"33":-0.08406781547588325,"34":-0.09854061309158782,"35":-0.17917557962432581,"36":-0.07325616017394791,"37":-0.031323373922512075,"38":0.006659438509746846,"39":-0.16360124790454558,"40":-0.05215391634860423,"41":0.06638947989624724,"42":-0.09842327418411942,"43":-0.030168527705603257,"44":-0.09422736991212308,"45":0.10895094991811219,"46":0.07550854762102258,"47":-0.10764318322771763,"48":-0.09633089042920451,"49":-0.1789814267551414,"50":0.09954362437807641,"51":-0.2183524579368834,"52":-0.1280520748879418,"53":0.09857738920764753,"54":-0.11791707823037101,"55":-0.02527139534384335,"56":-0.08191044101173608,"57":-0.10297187706589003,"58":0.014574452686279677,"59":0.07131280849807631,"60":0.06082195775134634,"61":-0.1363709694225692,"62":0.13072663687847683,"63":0.1733819749355823,"64":0.007327107348499817,"65":0.04048456785009747,"66":0.21400220621698446,"67":-0.08122033678224667,"68":0.062272504375785416,"69":0.05908048946498233,"70":0.2394381579598839,"71":0.14277408728458008,"72":-0.08487865917516477,"73":0.053886699005004514,"74":-0.20327870341094156,"75":-0.0855294061954463,"76":0.01940908422698098,"77":0.025861406575304044,"78":0.07855184444996394,"79":0.11730139658114065,"80":0.15178845709049751,"81":0.04794034649622249,"82":0.01956347825562204,"83":0.1401933899952524,"84":0.18358893321566672,"85":-0.11408551633768398,"86":0.04422801864526033,"87":0.012682427256526078,"88":0.11056647718246834,"89":0.02351923899492993,"90":0.05800371864690515,"91":-0.021731125058034793,"92":-0.009621807394248463,"93":-0.09070106414337939,"94":-0.019877382200942248,"95":-0.02549346312785605,"96":0.03158387248527165,"97":0.002585402334587642,"98":0.002958611063620269,"99":-0.054046668863845446,"100":-0.10243383711826945,"101":-0.12557857999658717,"102":0.005207489849449918,"103":-0.04680823125493354,"104":-0.046947217838045334,"105":-0.03690233431133209,"106":-0.009566547720914842,"107":-0.00928778671063772,"108":0.0007718875434007514,"109":0.01039719688092448,"110":-0.01629900178762217,"111":-0.07096943739839336,"112":0.030117139561527524,"113":-0.03390844116899857,"114":-0.10450299160357625,"115":-0.019508562906850397,"116":-0.01730126551771983,"117":-0.11977160016566221,"118":-0.07407116388853126,"119":-0.14056059222309064,"120":-0.06625262666497451,"121":-0.06536257601896514,"122":-0.0010157577266979689,"123":-0.031994360984084445,"124":-0.09117902743793772,"125":-0.12281892041396304,"126":-0.04705020365345829,"127":-0.08269329448137612,"128":-0.06541673228370845,"129":-0.19597068271797075,"130":0.0006264135561323207,"131":0.06351208226719571,"132":0.09935784686650248,"133":-0.030293935077138845,"134":0.022028826498559584,"135":0.06567406874647533,"136":0.031022774840798004,"137":-0.0857286834229872,"138":-0.0227732259484634,"139":-0.14098864976580297,"140":0.08414684005824181,"141":-0.08090408536768788,"142":-0.09735067648089833,"143":-0.05875477346442053,"144":-0.02562204416862736,"145":-0.14566083466063484,"146":-0.05998180623378432,"147":-0.029320509519367915,"148":-0.060784665305382846,"149":0.01637345127143177,"150":0.08155580027345702,"151":-0.027138324392449606,"152":0.06836702034599619,"153":0.12886030444218236,"154":-0.07765379157418588,"155":0.07921972224125232,"156":0.13255649216604454,"157":-0.20199205987600374,"158":0.02831248851263004,"159":-0.09879254431918943,"160":-0.12499805478700675,"161":-0.016264808318322322,"162":-0.02416133339461807,"163":-0.04246225684696729,"164":-0.10550208294340517,"165":0.0780349533770001,"166":-0.12239043353209467,"167":0.09943088119584509,"168":0.13344279307869927,"169":0.03487062701985675,"170":-0.014257340202581584,"171":0.11126476346315001,"172":-0.05717441532427252,"173":0.10816285045423898,"174":0.23424209121969458,"175":-0.18851197350377538,"176":-0.04404388614054851,"177":-0.00024454220496065467,"178":-0.1308205941627423,"179":-0.08400105481184236,"180":0.016145543265842423,"181":0.03577893860971085,"182":-0.034936662116961746,"183":-0.0486772150926749,"184":0.0341615686340093,"185":0.007473077997397324,"186":0.0453615259766313,"187":-0.12302547995615719,"188":0.035935378921368166,"189":0.0032074862597386497,"190":-0.13768739910496347,"191":-0.054289358024792254,"192":0.10290049133362542,"193":-0.04829773980046037,"194":-0.07943825921146729,"195":0.014345363792684543,"196":-0.09305864751137662,"197":0.02749932332509197,"198":-0.025511389310630822,"199":0.06584632436812728,"200":-0.024294370051403148,"201":-0.031206726285137626,"202":-0.022301788213904782,"203":-0.008245665251978458,"204":0.08109040720670031,"205":-0.0886158656418229,"206":-0.12248338164442889,"207":-0.07769397826243114,"208":0.05504754730002484,"209":-0.13033182588888248,"210":-0.05268264072922174,"211":0.04972792518487818,"212":-0.06584062130935486,"213":-0.02075468899098525,"214":-0.05012588206294574,"215":-0.04642094539383232,"216":-0.016274244067107386,"217":-0.1101003971805367,"218":-0.1128422795706225,"219":-0.1583809896154414,"220":-0.1641603199865524,"221":-0.14619423973142523,"222":-0.10282820224440058,"223":-0.01778921368615407,"224":-0.018290705161494586,"225":0.05475109297234745,"226":0.09466759209749018,"227":-0.0893104273670487,"228":-0.03730635319836918,"229":-0.08849815645657563,"230":0.02574239496034298,"231":-0.026184228811679578,"232":-0.20392095511044872,"233":-0.14791284717805972,"234":0.017078905494873696,"235":-0.1476033774170001,"236":-0.04906550632213429,"237":-0.08651828165659356,"238":-0.0507060201911162,"239":0.014234322866019063,"240":0.0583670931400008,"241":-0.002460804532664503,"242":0.03133859119717247,"243":0.17232864089349637,"244":0.02428601450139383,"245":0.021397818381125207,"246":0.10930949810018346,"247":-0.12370750813168359,"248":0.024568421969941134,"249":0.028922498883591555,"250":-0.09108515709531725,"251":-0.011008673452927076,"252":0.2198864783943366,"253":-0.015378991944200235,"254":-0.20087664426402085,"255":-0.022735415897239215,"256":-0.028359703496592604,"257":0.0598755427470203,"258":0.1631263850547927,"259":0.08218106075620929,"260":0.1494096548761421,"261":0.09857668097853879,"262":-0.04054811339380749,"263":-0.029153644194796036,"264":0.2928149592074771,"265":-0.23913743573315388,"266":0.07861575433882283,"267":0.09020026849240476,"268":-0.19977184096843492,"269":-0.033274876921728064,"270":0.012739912099304135,"271":0.07820374627726352,"272":-0.057022978869970306,"273":-0.16158195773543343,"274":0.1244097248368575,"275":0.011271713688978453,"276":-0.06564315412581787,"277":-0.11783878817249553,"278":-0.0601731995145552,"279":-0.06352113308648301,"280":0.04591189960567473,"281":0.019217206759149334,"282":0.10354467569205231,"283":-0.027876032363527235,"284":-0.23874388774795702,"285":-0.09150303261081345,"286":0.04407370794305289,"287":-0.030918792860048526,"288":-0.09252613274274536,"289":0.07670038996923564,"290":-0.0322403304385003,"291":-0.05507183790987349,"292":0.06132963501145135,"293":-0.08114716251771419,"294":-0.049467276490655285,"295":0.002739082184566762,"296":-0.039609450567432376,"297":-0.07782390039009793,"298":0.050317833855567644,"299":-0.2704036854973298,"300":-0.03152191409637288,"301":-0.05391241508393967,"302":0.034883405157280584,"303":0.022519101868198645,"304":-0.19188768799076655,"305":-0.022536481903233888,"306":-0.05540316829987069,"307":0.09159302553798204,"308":-0.08292577619931606,"309":-0.101110310002999,"310":0.024418352386848276,"311":-0.07081343677052246,"312":-0.02231069023938342,"313":0.1469912779233772,"314":-0.1046375483376383,"315":-0.014333233004706984,"316":-0.04561568886691566,"317":-0.2206710441130173,"318":-0.04424865560893433,"319":-0.050932456859904475,"320":0.16938234064965635,"321":-0.15037976662469088,"322":-0.1672894691040949,"323":-0.0800810499504844,"324":0.01931538242589228,"325":-0.09190512167196482,"326":-0.09979616071167706,"327":-0.05543236289494478,"328":0.11381723423798618,"329":0.0464406683676365,"330":-0.07280357392251954,"331":0.12062159431293834,"332":-0.10631831521163353,"333":0.050748764882507964,"334":-0.016252462356181666,"335":-0.01751965768737325,"336":0.13472114685283848,"337":-0.04303891218158385,"338":0.0009639725698234712,"339":-0.11006274187808612,"340":-0.08437158529693625,"341":0.05680950335278832,"342":0.0625414628079006,"343":-0.008467897077505972,"344":-0.10949785405171723,"345":0.08964541640119204,"346":0.07903376733147371,"347":0.07525061428534427,"348":0.00028308702869848885,"349":0.15893240194000197,"350":0.04748084125893081,"351":0.056551188656368614,"352":-0.052945593455161824,"353":0.07724162646713043,"354":0.26513469918240984,"355":-0.036419938248460196,"356":0.038714012063889164,"357":-0.051741081105560936,"358":-0.143352033194118,"359":0.12499248025820933,"360":-0.03543215183434114,"361":-0.03621686012070401,"362":-0.041927432502524085,"363":-0.14671936098563554,"364":0.010177842297227081,"365":-0.1811684188084613,"366":-0.11522042562397221,"367":-0.04990235421139807,"368":-0.2322150481366877,"369":-0.07111381699267103,"370":-0.08281621637195165,"371":-0.10120489415727792,"372":-0.07846385968491448,"373":-0.0884875947288153,"374":-0.24699057635214275,"375":-0.06108136866333204,"376":-0.0891248802526298,"377":0.01608859776815033,"378":-0.09798568033679798,"379":0.04279845870631327,"380":0.05904354812426928,"381":-0.06202100008881282,"382":0.05783461189226147,"383":-0.1702264218181486,"384":-0.09688746493150294,"385":0.11021333818356543,"386":-0.25943508939588267,"387":0.030807842494030322,"388":0.020585557849518744,"389":-0.09393305765295654,"390":0.02319986530612692,"391":-0.02773903886851529,"392":0.07415364825467607,"393":-0.09069879033321476,"394":-0.02346273119478977,"395":-0.16995711949707087,"396":-0.12323922846663696,"397":0.12730107885116898,"398":-0.015124420870229884,"399":-0.11673371462427236,"400":0.08353556033548236,"401":-0.12510264490449458,"402":-0.003420878420141689,"403":0.17321876066516365,"404":-0.12146557507153967,"405":-0.10474827116743758,"406":-0.06657383532166197,"407":-0.1958732292095778,"408":0.052029779865434674,"409":0.006749955720519389,"410":0.13698004375478878,"411":-0.10399593632351523,"412":-0.09553137134005082,"413":-0.14676434001489072,"414":-0.12823752829761167,"415":0.07812655588535067,"416":-0.06580918421617633,"417":0.0040231125605164515,"418":0.13403181854937904,"419":0.10138644035367772,"420":0.03996046613508135,"421":0.20492703577545954,"422":-0.1278174917509358,"423":-0.04087963601452755,"424":-0.1396562109506931,"425":-0.11166038273359738,"426":0.07468329625629316,"427":0.024954675083633006,"428":0.05016793247939241,"429":-0.039502385086512964,"430":-0.0007341192619522933,"431":0.10140241019243447,"432":-0.025481964729565394,"433":-0.02479204253270852,"434":-0.014344479909965175,"435":-0.040297239748849106,"436":0.15425860745802308,"437":0.17552617439917984,"438":0.011963895695037708,"439":0.17479720717452907,"440":0.04817548070253939,"441":-0.028478513127816962,"442":-0.14538532059967835,"443":-0.017001129380290966,"444":0.055606343313653085,"445":0.02065153707723336,"446":0.022365998728778373,"447":-0.12592159727688654,"448":-0.037795404679235006,"449":0.1970465651795369}},{"sx":5,"sy":5,"depth":18,"w":{"0":-0.22361350140415082,"1":-0.12226993209443962,"2":0.08950215949225689,"3":-0.17579239372839014,"4":-0.15550743158137587,"5":-0.06834855556128969,"6":-0.045384906969404254,"7":-0.058695657150874554,"8":-0.21118346722537135,"9":-0.0877730185024525,"10":-0.12216322032795639,"11":-0.1533655181391079,"12":-0.12907139092822126,"13":-0.04497026697955584,"14":-0.042710166188756706,"15":-0.16382973734254774,"16":-0.13022313987186654,"17":-0.0974828903620047,"18":-0.14125366292663588,"19":0.000024344744207971333,"20":0.1462879333130738,"21":-0.1425346261020287,"22":-0.07677348404937034,"23":0.04034328368093798,"24":-0.0703581607902528,"25":0.07818059122648821,"26":-0.08079440394579906,"27":-0.1278632649354413,"28":-0.062199061183571484,"29":0.16334297072255582,"30":-0.026570235355464027,"31":0.015462668729911148,"32":-0.05207277692343497,"33":-0.08841039926848393,"34":-0.010800021609140746,"35":0.03595745669993141,"36":-0.08138310072586302,"37":-0.050130097531247815,"38":0.03575961080470259,"39":-0.1347907816135698,"40":-0.13108083020850317,"41":-0.04778238734427369,"42":0.03924484389189383,"43":-0.03838866707636527,"44":-0.08861644312993627,"45":-0.18530782203216886,"46":-0.18025532752716375,"47":0.19389985627014672,"48":0.019485129762465966,"49":0.06383078239253193,"50":0.004110714706515793,"51":-0.20056227099136695,"52":0.036145988531613715,"53":-0.15274477801785993,"54":-0.06989745159047578,"55":-0.14290182172576216,"56":0.07482495572491735,"57":-0.06535309254940613,"58":-0.03975722335404844,"59":-0.026691148132217336,"60":-0.14912050022774467,"61":-0.028544561511200058,"62":-0.13299416189856558,"63":-0.28547854833040853,"64":-0.040753997444210266,"65":-0.08227370672205007,"66":-0.052736575018039564,"67":-0.022475999433932005,"68":0.023502224970595155,"69":-0.07813786611417946,"70":-0.0819275771471025,"71":-0.04106812035823604,"72":-0.04471253805073725,"73":-0.08581572052213311,"74":0.030587650827887416,"75":-0.11740797640660841,"76":-0.10469190334040429,"77":0.0332338745500237,"78":-0.006250890525813622,"79":-0.04471144009412043,"80":-0.055708065597846274,"81":-0.19199551939870127,"82":-0.04123748263761871,"83":-0.08858187363814952,"84":-0.03415832241736742,"85":-0.02835586992256676,"86":-0.07432626917250174,"87":-0.21992657879522176,"88":0.040375500466392475,"89":0.08653483765869291,"90":-0.2099309363051108,"91":-0.19381191338422848,"92":0.09576866403702385,"93":-0.1681412043993053,"94":0.027454763279626745,"95":-0.009205206933971007,"96":-0.12387741139909797,"97":0.007074151209133081,"98":-0.07471140207628742,"99":-0.030677718939306906,"100":-0.24511097296474632,"101":0.09858670921204483,"102":0.043667216641559474,"103":0.01586959705211457,"104":-0.08722744309769803,"105":-0.2015616870953788,"106":-0.010691076535873081,"107":-0.08202705850758958,"108":-0.12925260357418614,"109":-0.16760152896764105,"110":0.051194720897828984,"111":-0.11272917945051496,"112":0.02971684118269055,"113":0.015515823575050892,"114":-0.07287872222241687,"115":-0.04487048547764753,"116":0.04637351986198913,"117":-0.1677268684369505,"118":-0.28804029129086856,"119":0.21126137898231923,"120":-0.051260010932108496,"121":-0.044014201818702345,"122":-0.10000655375676387,"123":-0.19838432803446718,"124":-0.0321489564761715,"125":-0.05471837749690226,"126":-0.18295494787905425,"127":-0.2658052853651108,"128":0.04688134509122327,"129":-0.10957080148571041,"130":-0.10524434584570844,"131":0.20040697264236967,"132":-0.16054274117925074,"133":-0.04570678158975943,"134":-0.10603632041007972,"135":-0.07544606816577094,"136":-0.31971635667836074,"137":0.1806591878861417,"138":-0.05814021833745658,"139":0.030307163478710417,"140":-0.07503662835215658,"141":-0.2515908026489279,"142":-0.08600386598855883,"143":-0.09577923779082942,"144":-0.16876092378852253,"145":-0.23879088656325692,"146":0.06841671669765718,"147":-0.08025954590411005,"148":-0.0005918775291492767,"149":0.11454258527387642,"150":-0.07579203206152907,"151":-0.03749996984815081,"152":-0.07702825567955424,"153":-0.0424826965503342,"154":-0.2682953170337347,"155":-0.044304859220590256,"156":-0.16869342264201478,"157":0.07949370391728736,"158":-0.12283204886992449,"159":-0.3004771773646333,"160":-0.13018669505458855,"161":0.012528601262130899,"162":-0.054483990945795285,"163":-0.14294940199328543,"164":0.027179414141144328,"165":0.06594177284697528,"166":-0.00165795362886773,"167":0.16101158233788782,"168":0.023011543808094084,"169":-0.12931950772290587,"170":-0.018746543729366464,"171":-0.08891177659351887,"172":-0.2835379008863471,"173":-0.04115109267489508,"174":-0.10781240239125257,"175":0.0644868758070075,"176":-0.10535361939624818,"177":-0.2866812732564067,"178":-0.011741695993280798,"179":-0.004596777974728367,"180":-0.368853777060115,"181":-0.014088625291572461,"182":0.041592396954559394,"183":0.12098853440007222,"184":0.037032732029175564,"185":-0.093642539579923,"186":-0.06859820344813256,"187":-0.18711143110913747,"188":0.12290318628773671,"189":-0.05988739784481827,"190":-0.3664573653704004,"191":0.1948824542813341,"192":0.021528873280086416,"193":0.038023538176203034,"194":-0.09408334198936785,"195":0.062227282901148005,"196":0.060953126065971655,"197":0.02639184583155188,"198":-0.2809634784499165,"199":-0.035491964563750006,"200":0.07461127923446177,"201":0.01629887299708791,"202":-0.005032352612030979,"203":-0.07768772224494777,"204":-0.06629909312257104,"205":-0.09854903532645393,"206":-0.05377760154478515,"207":-0.08901057638981467,"208":-0.20637666998718882,"209":0.0010631942830377794,"210":0.049957199606732686,"211":0.049662715754329734,"212":-0.039975866708452684,"213":0.013516813644833411,"214":-0.0472408182978894,"215":0.01166632413940104,"216":-0.14158553871162954,"217":-0.07121436998083676,"218":0.1475763072875731,"219":0.08189860744211311,"220":0.07661276288720423,"221":-0.02892446589642987,"222":-0.07336344069026547,"223":-0.07988570807333234,"224":0.007876366267448283,"225":0.09522094435068874,"226":-0.18964270287189855,"227":0.05219832117306868,"228":-0.029256483008671962,"229":0.08976606867816124,"230":-0.0316990299862647,"231":0.07129380406396682,"232":-0.03812177180754378,"233":0.07545072506705262,"234":-0.1644692656349646,"235":-0.011551258291538925,"236":0.05823803204796852,"237":0.04690301559136876,"238":0.08048547944859696,"239":0.12662401901373904,"240":0.022498383219143367,"241":-0.07273750313953768,"242":0.17926327364319417,"243":0.07378772719059405,"244":-0.2505427049694403,"245":-0.03071402038374754,"246":-0.038693871819121844,"247":0.11449033725607265,"248":-0.12936454830370442,"249":0.08745694220971756,"250":0.008151277050281854,"251":0.028169369236754838,"252":-0.0456668018655134,"253":0.06792242228154102,"254":0.21404498966878382,"255":0.09180289481517831,"256":0.08527565935222127,"257":0.018799471779175524,"258":-0.03534653130336929,"259":-0.034161877600549215,"260":0.19998492824005717,"261":0.0690167824550534,"262":-0.28074535168552434,"263":-0.031019438153753753,"264":-0.012248440460015247,"265":0.033299488047120046,"266":-0.0526825761405805,"267":0.2117096113474399,"268":0.1200617473244674,"269":0.08425950285095418,"270":-0.21193844395662598,"271":-0.16797319313408565,"272":0.1668865448704492,"273":0.13926654106127456,"274":-0.06474571454658867,"275":-0.10878738853345571,"276":0.09035892363385564,"277":-0.07535453551242585,"278":0.14515445467204108,"279":-0.11213880840696791,"280":-0.370412439764251,"281":0.0023449660574836368,"282":0.01657610397969674,"283":-0.00011806806537221164,"284":-0.04246521580749493,"285":0.2010189424176858,"286":0.041332826639540896,"287":0.07356005006488908,"288":-0.2571551658246046,"289":-0.19086378040385563,"290":-0.007256802488037597,"291":0.175197774932082,"292":-0.030270204709494247,"293":-0.1959262700842034,"294":0.008081003043573762,"295":-0.025888146972108932,"296":0.11258213034714484,"297":-0.10093265382768152,"298":-0.2338473110389691,"299":0.00016593429133203834,"300":-0.026086300527342093,"301":-0.026043467102879213,"302":-0.0939614933805945,"303":0.12902744293197643,"304":0.021484595140521662,"305":-0.07832815757873386,"306":-0.18382000503041437,"307":-0.03564406041706383,"308":-0.028347823941783035,"309":0.23154194676749604,"310":-0.03730274750204713,"311":-0.1022809832464961,"312":0.03615277644259219,"313":0.04582898296064823,"314":0.1269670008035851,"315":0.0025366890073599247,"316":-0.31522819560117615,"317":0.027821624166710638,"318":-0.01407467744836347,"319":-0.007701145395494542,"320":-0.1900437408119395,"321":0.1430636047598504,"322":-0.007853187831784554,"323":0.05225513131687328,"324":-0.18091958524841217,"325":-0.0726085583161874,"326":0.08458131809564612,"327":0.07078777637208307,"328":-0.07956651905668381,"329":-0.09907739879105523,"330":0.008654036265857588,"331":-0.16932906844543072,"332":0.17027896906046136,"333":0.08088567123657983,"334":-0.28059247414912697,"335":0.030784026686324482,"336":-0.009777964370832311,"337":0.014780150491207322,"338":-0.16999874334588524,"339":0.19217070566430164,"340":0.11822788564018397,"341":0.04391947281330028,"342":-0.13928091875750037,"343":-0.04230149921664163,"344":0.03461845780190194,"345":0.15586760178739456,"346":-0.042518779661455265,"347":-0.11035011624523955,"348":-0.026716511771753684,"349":-0.07509022388609665,"350":0.07502593661827332,"351":-0.030864546889717445,"352":-0.3131657674218222,"353":-0.057957242067284837,"354":0.03712619261393298,"355":0.019435056781947593,"356":-0.0591815134593152,"357":0.21768293973852595,"358":0.03296495070271768,"359":0.09064658744106788,"360":-0.2380301712861084,"361":-0.19274988786822583,"362":-0.035170459675092955,"363":0.21432227644411195,"364":-0.0044177260960931615,"365":-0.0036068049261841393,"366":0.08396322327517074,"367":-0.054890555440935296,"368":0.11370315433845335,"369":-0.04893443086841296,"370":-0.1800203176448758,"371":-0.011470092326733733,"372":-0.07212960258346957,"373":-0.11001577560282363,"374":-0.14355522392561873,"375":0.059791942494944114,"376":0.11865875187390372,"377":0.035396798688744326,"378":-0.22987788432040565,"379":-0.23289150053217886,"380":0.03542002320057269,"381":0.1436085218958936,"382":-0.012574678464136518,"383":-0.036591286137111975,"384":0.15532719018179972,"385":0.01767532964553099,"386":0.08977677956531561,"387":0.11472982518975829,"388":-0.2774728789658774,"389":0.03829796055842708,"390":-0.055154683936015456,"391":-0.0008726177787984548,"392":-0.15902754121659934,"393":0.06920174817263804,"394":-0.014440269563733482,"395":-0.09201804708930399,"396":-0.24898810562960058,"397":-0.20174135856030243,"398":0.07592615100924874,"399":0.1915305588748623,"400":0.051602609040793376,"401":-0.08451707708129608,"402":0.15300405664083822,"403":0.11743479450414884,"404":0.12470601419160796,"405":0.03789111497242985,"406":-0.2190363280495976,"407":-0.009026277126081794,"408":-0.042526728784342514,"409":-0.0875218585687143,"410":-0.05335491192996586,"411":0.1004398740937207,"412":0.08997112846099864,"413":0.06338443336159102,"414":-0.11014267014019044,"415":-0.17928225948891968,"416":0.1448317880151375,"417":0.24795995679576868,"418":0.002193295986808651,"419":0.008733604453424876,"420":0.3050704431731473,"421":0.020838460831826614,"422":0.21253316975343403,"423":0.0817107684579567,"424":-0.19197960976458617,"425":-0.07380563022657292,"426":-0.029388641640615564,"427":-0.09706698597349163,"428":-0.10906730418466408,"429":0.10541609310192032,"430":0.018822034117227555,"431":-0.03124772718841723,"432":-0.1593269205934648,"433":-0.16745201462187637,"434":0.1605059446626274,"435":0.2575268272806523,"436":-0.07042135057224568,"437":-0.01185311411463226,"438":0.157721532743758,"439":0.014875294990503907,"440":0.1282459523923182,"441":-0.0011478609731877757,"442":-0.13357863672685322,"443":-0.021868918281171518,"444":0.005685682361123571,"445":-0.14198735401700271,"446":-0.10669900509947838,"447":0.1612994030387452,"448":-0.00787950813185494,"449":0.023844129629942035}},{"sx":5,"sy":5,"depth":18,"w":{"0":-0.18059392619879996,"1":-0.10212885389746672,"2":-0.08291491428067117,"3":-0.12356620825144245,"4":0.02150460122482576,"5":0.029592874062952884,"6":-0.08336031572420917,"7":-0.010460825587733723,"8":-0.059234450073254966,"9":0.03453165460913717,"10":-0.04684398522460195,"11":-0.103825346618636,"12":-0.17673738602931247,"13":0.06685069031040865,"14":-0.004656078497870911,"15":-0.23605877656518334,"16":-0.09141215887291428,"17":0.06634214979465065,"18":-0.24215636626278897,"19":-0.1757612576069017,"20":-0.15280239041369909,"21":-0.09789005348684639,"22":0.006232314116030263,"23":0.1320444228064172,"24":-0.053163666187271294,"25":-0.03540441346411337,"26":-0.07946013237253655,"27":0.029931630871971395,"28":-0.08313039208941635,"29":-0.1992057939373651,"30":-0.04469379670094075,"31":0.12034695005389187,"32":-0.1454313349466747,"33":-0.2213047709321361,"34":-0.10093925938922542,"35":-0.11076032635306908,"36":-0.17226127517873105,"37":-0.17780916777010025,"38":-0.13482862672212656,"39":-0.19922712662563888,"40":-0.02107566440250799,"41":0.10462574900651841,"42":-0.1025330646240282,"43":-0.07488551519178073,"44":-0.16107148789552547,"45":0.06366148380161157,"46":0.0032040095237883303,"47":-0.098313468617065,"48":-0.10591428150579346,"49":0.09000371606893001,"50":0.0009320757798040984,"51":-0.19019860347951228,"52":0.004594331823303085,"53":-0.10134566661299203,"54":-0.1793713779074421,"55":-0.15869396247880238,"56":-0.13544800923186617,"57":-0.10419947833584352,"58":0.0015165480869705678,"59":0.2100088055129644,"60":0.050507112796570656,"61":-0.08200526333643035,"62":-0.057764619926678876,"63":0.12766383992684258,"64":0.08568682068131069,"65":-0.016211975860900684,"66":-0.14079266054540546,"67":0.030604129092218758,"68":0.08705083685066797,"69":-0.121205082279781,"70":0.01623756709807539,"71":-0.06957652986945878,"72":-0.33119318060164393,"73":-0.15044707874112734,"74":-0.25384446077904504,"75":-0.10335307017526021,"76":0.02038890614590493,"77":-0.0800295943990299,"78":0.08483841678641263,"79":-0.01318569566409174,"80":0.01722455267136991,"81":-0.0378466419886673,"82":0.038388698112358045,"83":0.0010316227443382055,"84":-0.08808358595222904,"85":-0.03306167403882795,"86":0.21041698604144007,"87":-0.05981320582339754,"88":-0.02901611316226024,"89":0.012089901539077456,"90":-0.20554181695375934,"91":-0.12154287536493855,"92":-0.04781484138151572,"93":-0.11878696514865383,"94":0.047076686890491416,"95":0.10107044621713719,"96":0.08064534271302708,"97":-0.14943228259759136,"98":-0.18372478078741242,"99":0.00307611555560986,"100":0.1075626044460053,"101":-0.06959398414369922,"102":0.0037792823104226643,"103":0.017128785591493303,"104":-0.042316388156987655,"105":-0.04920877575731348,"106":0.11540050268069756,"107":-0.0184658830419393,"108":-0.29700877259874015,"109":-0.13637570050682615,"110":0.022259786848207397,"111":-0.11974110951520749,"112":-0.19478373920756578,"113":0.037790173390186504,"114":0.03415820418717868,"115":-0.1503069894442107,"116":-0.05806759635417195,"117":0.06342814154890829,"118":0.03194164340956302,"119":-0.11348072724534425,"120":0.08881732637117633,"121":0.0361142164026785,"122":-0.0019528410943245112,"123":-0.05417030898762831,"124":0.2194358988967005,"125":-0.04393622517857652,"126":-0.24859038088337498,"127":-0.09540159078052174,"128":0.04113332192269866,"129":-0.16495640732863825,"130":-0.10722249242608968,"131":0.06989043505434778,"132":-0.027445923732718498,"133":-0.17318660524506824,"134":-0.26070823554523126,"135":-0.029052528999020957,"136":0.11724218169387514,"137":-0.22963924265042737,"138":-0.06081573731061512,"139":-0.022034090114475383,"140":0.039891920846041706,"141":0.10782025344122317,"142":0.19515908476079347,"143":-0.08052280366145871,"144":-0.2297414580307727,"145":-0.0724000423330634,"146":0.04086769331376381,"147":-0.17416224762406501,"148":0.05116581999946418,"149":0.019263218065929597,"150":0.0496935887869341,"151":-0.18534282565254737,"152":-0.14178749183544623,"153":0.12235743180931394,"154":0.07081209614393595,"155":-0.15577295011760303,"156":-0.01214391596496291,"157":-0.07414464107971296,"158":0.1420679626417156,"159":0.06620035224577572,"160":0.11057568617537532,"161":-0.1341730590842904,"162":-0.2532102872512541,"163":-0.11136469611544919,"164":-0.10080720918922044,"165":-0.07187214436670178,"166":0.09960703433561416,"167":0.03194028801762536,"168":0.06133266274152267,"169":-0.14102007997109053,"170":-0.05563994957384578,"171":-0.0031465114430984866,"172":0.004629036972818555,"173":0.20354689032190418,"174":-0.07290481786587572,"175":-0.12282782954768984,"176":0.15368230360396626,"177":0.029084168884813452,"178":0.051921571779329906,"179":0.06449618534194873,"180":-0.1780239321954677,"181":-0.14638176384496704,"182":-0.033700976105578984,"183":-0.08268288299548616,"184":-0.18581997850794776,"185":0.04304009214549744,"186":-0.15010850781501278,"187":-0.14210731823700415,"188":-0.1783440208926265,"189":-0.0707633119095433,"190":0.09897907917872013,"191":-0.10732669975036178,"192":-0.07263476384583627,"193":-0.03521129938526663,"194":-0.08928642133099618,"195":0.18735239703086737,"196":-0.07456637882859306,"197":-0.12452336751121935,"198":-0.14543454477139264,"199":-0.17967868438239917,"200":0.06270479548485625,"201":-0.08789082870598929,"202":-0.20208408028961705,"203":0.09547563463315714,"204":-0.136148882774907,"205":-0.1338392815898134,"206":-0.17950277787326932,"207":-0.012012927393341425,"208":-0.0005404516687847333,"209":-0.1980340603871169,"210":-0.03968528127904655,"211":-0.022324311128129493,"212":-0.03318153516462813,"213":0.19927314328884643,"214":-0.010298231495923323,"215":-0.12179495290125086,"216":-0.11468072281330222,"217":-0.13864542552220802,"218":0.10717237433304104,"219":-0.09803696526442822,"220":-0.16043617928808643,"221":0.05985139365665343,"222":-0.07883780125670248,"223":-0.11304409080195417,"224":-0.13318924374432425,"225":0.020671052349230112,"226":0.07756223793502,"227":-0.23110956578974687,"228":-0.10034444005654691,"229":-0.003586052633983934,"230":0.06904856214737615,"231":0.1966921815181035,"232":0.06631866148281416,"233":-0.08208862107015392,"234":-0.0805846689380692,"235":-0.10279524898309568,"236":-0.022792306778035426,"237":-0.11262403520289821,"238":-0.09640857623849428,"239":0.06063223189349205,"240":-0.035948530004247796,"241":-0.23637930667962656,"242":-0.16851340716912797,"243":-0.013576250679901614,"244":0.027378142784706728,"245":-0.2725684161139262,"246":-0.060865471450151316,"247":-0.0018764723166869726,"248":0.08013013310660562,"249":0.16286870931947622,"250":0.006922694204973663,"251":-0.08854654187471124,"252":-0.12730223621299652,"253":-0.09853719605366332,"254":-0.11824088873137005,"255":-0.1118999758220421,"256":0.05628501513841494,"257":0.08041974799226304,"258":0.07503522906437836,"259":-0.11719337330305427,"260":-0.12470062571176889,"261":-0.20134359914891095,"262":0.08289293732466874,"263":0.13381394533213936,"264":-0.17498033782898237,"265":-0.03417898128179893,"266":0.01224890118885308,"267":0.03939995774302694,"268":-0.16262397830064992,"269":-0.01475287166105309,"270":0.02987997634562292,"271":-0.05683757091072724,"272":-0.022138586179345693,"273":0.02721410624608857,"274":-0.10560309723083558,"275":0.11127522124903595,"276":-0.14565639658884605,"277":-0.17102344319199997,"278":-0.2998820962618396,"279":-0.08721058273621092,"280":0.1829470171355791,"281":-0.1559253730448333,"282":-0.10079042231154672,"283":-0.05548402208373057,"284":0.03350992024144839,"285":0.01466813170177966,"286":0.07084441652680341,"287":-0.09293757337487138,"288":-0.07435168733898374,"289":-0.0838045262672191,"290":-0.0119556333740554,"291":0.023119519343678462,"292":-0.0884761603102258,"293":-0.009811856748073383,"294":-0.0950538958746027,"295":-0.14616949802759432,"296":-0.21713086142465612,"297":-0.10011744419959111,"298":0.08702078744679387,"299":-0.11682636453811808,"300":-0.06722868532145908,"301":0.002752542069447476,"302":-0.05328696621433283,"303":0.0016365017591912796,"304":0.16823208105816106,"305":-0.09005225065991779,"306":-0.0685903737404558,"307":-0.0344181142180363,"308":0.05679637848955716,"309":0.03601320511987788,"310":-0.12219825184583788,"311":-0.030712000168197875,"312":-0.07782942671554166,"313":-0.10463051949697062,"314":-0.17744860385730593,"315":-0.15582176895501246,"316":0.1386300253063228,"317":-0.13713849811451062,"318":-0.0340399080275331,"319":-0.04224391463042646,"320":0.04194463720076503,"321":0.09256047071287031,"322":0.25978683424316695,"323":-0.02011468638920559,"324":0.0011215984421888093,"325":-0.1383381680002591,"326":-0.018126583132482044,"327":0.00311797930747981,"328":-0.17217354244712077,"329":-0.06534936571352105,"330":-0.08450932698546845,"331":-0.12205919247850584,"332":-0.19697383596534218,"333":-0.006621809875745132,"334":0.10098640143953096,"335":-0.1273022036682282,"336":-0.060539265447177505,"337":-0.17085567180817995,"338":0.10073208758565777,"339":0.1945529247708694,"340":0.20038934273761064,"341":-0.07957550489240751,"342":-0.014735887020258924,"343":-0.2652372938712411,"344":-0.17088871910837464,"345":0.03444937809054421,"346":-0.05356558795936649,"347":0.007239692443959785,"348":-0.07756069928949215,"349":-0.20818283918926622,"350":-0.13878470199978163,"351":-0.050089695847487584,"352":0.12034302560362051,"353":-0.15259802605519368,"354":-0.04747549483123743,"355":0.009990706725153058,"356":-0.009117212957131554,"357":0.1910727517975386,"358":0.14058300164616713,"359":-0.06232337169889509,"360":-0.02272186849911402,"361":0.00966218018344283,"362":-0.030444806145186035,"363":0.02379144849022044,"364":-0.03502048376957458,"365":-0.08108000518960952,"366":-0.03523909723277809,"367":0.029597289405846827,"368":-0.1842728492774235,"369":-0.06347337245635114,"370":-0.15415831286686818,"371":-0.0025814405731319746,"372":-0.08941156461058339,"373":-0.029462346689377545,"374":-0.13065654755675302,"375":0.012481580848605407,"376":0.14092838256453113,"377":-0.11505982218195128,"378":-0.011202794109380639,"379":-0.033726861915838714,"380":-0.08268255496716967,"381":0.08800271710107851,"382":-0.03320776241764204,"383":-0.0007402738257253122,"384":-0.012005697333545305,"385":0.05923819541507408,"386":-0.11776698506445338,"387":-0.058942112480370526,"388":-0.06745310315013049,"389":-0.19014429408519254,"390":-0.059410612890381256,"391":-0.14984220752032798,"392":-0.18266401318950498,"393":0.11112564412661936,"394":0.09785255257102249,"395":-0.17031534489184294,"396":-0.010418295540105834,"397":-0.005774915153112097,"398":0.0006526739675326893,"399":0.08671750708983224,"400":-0.047632136590252123,"401":-0.14468129850779898,"402":-0.11893174895120649,"403":0.08191317179503932,"404":-0.17918235360093332,"405":-0.12567443193207692,"406":-0.19813054634940147,"407":-0.09984939449546484,"408":-0.12170730671196556,"409":-0.15930277796921846,"410":-0.16682667215847033,"411":0.08727545826674497,"412":0.16422930500685082,"413":-0.16220617761773093,"414":-0.03755948399522225,"415":-0.031658764338953344,"416":-0.05322211156799379,"417":0.04925280716635829,"418":-0.040805128020406575,"419":-0.0463657026198995,"420":-0.02769957716920168,"421":0.07400637114634967,"422":-0.0993282581804445,"423":-0.07368742314013832,"424":-0.11856951903037638,"425":-0.08435074340236504,"426":-0.05102910182456209,"427":-0.11115136240673468,"428":-0.2726706210516043,"429":0.19581401501128562,"430":0.16821118086034265,"431":0.004329050667108633,"432":-0.04164475024879018,"433":-0.015534586377308446,"434":-0.10472940039621038,"435":-0.035756810617734835,"436":-0.04641042538125284,"437":-0.0388985659760929,"438":0.007256723776127843,"439":-0.012308024706722204,"440":-0.1596099522207167,"441":-0.058283157455298856,"442":-0.12966027521736148,"443":-0.04769170140048532,"444":-0.12152329196364123,"445":-0.12845017416396307,"446":-0.22340248558899822,"447":0.06633289420870822,"448":0.13070992407143892,"449":-0.0319113336009175}},{"sx":5,"sy":5,"depth":18,"w":{"0":0.061000614502231834,"1":-0.20291853583868572,"2":0.0032274419925967463,"3":-0.12372822677729914,"4":-0.029026645917346085,"5":0.03648623177050521,"6":0.17827626647909983,"7":-0.04638753533476818,"8":0.05855543294931524,"9":0.11712994671784421,"10":0.21803689253067726,"11":0.21876907010395977,"12":0.01812293623192503,"13":0.09561433062920761,"14":0.13070973540859837,"15":0.22789851664412358,"16":0.15234136710527332,"17":-0.02479888369163843,"18":-0.02980442662886727,"19":-0.2572500851689372,"20":0.01618662973290318,"21":-0.15788391172338948,"22":-0.11886690399948681,"23":0.04158858861028143,"24":-0.010642188182833625,"25":0.05956460541403423,"26":-0.14811773909183618,"27":0.040789594375283005,"28":0.03969898061246377,"29":0.16942833423890222,"30":0.011574680831398438,"31":0.1759958838351546,"32":0.028290876604510167,"33":0.02403315124289977,"34":0.1459364449168266,"35":-0.06267356583618988,"36":-0.05368893144342839,"37":-0.30703615772070125,"38":0.06225151981966252,"39":-0.13451691431151874,"40":-0.07745390306621891,"41":-0.03491939948371482,"42":0.06875931083173624,"43":0.03596733213085831,"44":-0.055006855751870615,"45":0.021356281339482183,"46":0.0616441886798464,"47":0.18017513718143768,"48":0.08386346140483528,"49":0.21824430767766687,"50":0.0880085367369265,"51":0.09520592473620698,"52":0.23456636665211902,"53":-0.0813127284723412,"54":0.004586751160323064,"55":-0.2779785735147232,"56":-0.04290621301499486,"57":-0.1376811128602571,"58":0.04184282439430278,"59":0.03426503925161303,"60":0.020863921893894653,"61":-0.027976731561854033,"62":-0.028660666321913136,"63":0.13073349719744257,"64":0.0661991940318539,"65":0.052063385394613255,"66":0.057781671377017695,"67":0.19325656236924743,"68":-0.045426422807050656,"69":0.1641518682208178,"70":0.07871132418140425,"71":-0.07507382725631709,"72":-0.08276585197617513,"73":-0.4264792684286199,"74":-0.14943700081938877,"75":-0.23925325913417203,"76":-0.06264489494780616,"77":-0.02861389340741817,"78":0.06339124905275921,"79":-0.04929633430462647,"80":-0.11682914183116745,"81":0.2116157040901163,"82":0.08030398859953662,"83":0.1210358641339441,"84":0.10635758958622388,"85":0.06929447554375259,"86":-0.040946788658626596,"87":0.13735546067340462,"88":0.08610114345143129,"89":-0.11903406444698386,"90":0.011525864853203486,"91":-0.1659755991919705,"92":-0.11846916228352133,"93":-0.14063061095937188,"94":0.02187136339379701,"95":-0.0543387969769376,"96":0.08176070116930123,"97":0.023062797562592875,"98":0.11545409372049045,"99":-0.02702389386317241,"100":0.05341656505415604,"101":0.10179648566485504,"102":0.003034613591556711,"103":0.10396230651123457,"104":0.015354926119531013,"105":0.09495828144920798,"106":0.0971068779027788,"107":-0.180527413171677,"108":-0.0032820252703223787,"109":-0.18868018057599004,"110":-0.05532515296751088,"111":-0.04410014798103827,"112":0.03549066718904816,"113":0.0213143908410725,"114":0.12546312765357046,"115":0.005243554754927804,"116":-0.057149878421071,"117":0.07567513008996178,"118":0.07368185261434673,"119":0.1828219413676899,"120":-0.02437466397225241,"121":0.17072566612477252,"122":-0.07861450227059576,"123":-0.04755307372450747,"124":0.048547515003530585,"125":-0.23346852186814523,"126":0.011923011092353157,"127":-0.2822199454048744,"128":0.12342261405679707,"129":-0.09717417772741549,"130":0.07746924060244594,"131":-0.07722987121031508,"132":-0.007043853417283595,"133":-0.04789951969837002,"134":-0.029990762199370764,"135":0.016941120837072884,"136":0.05976745519802986,"137":0.11039765835360894,"138":-0.0257197410528442,"139":0.16591156805019813,"140":0.002582214606094899,"141":0.09048649360119426,"142":0.007528325991585866,"143":-0.04327990499065546,